{"learner":{"attributes":{"scikit_learn":"{\"_estimator_type\": \"classifier\"}"},"feature_names":[],"feature_types":[],"gradient_booster":{"model":{"gbtree_model_param":{"num_parallel_tree":"1","num_trees":"408"},"iteration_indptr":[0,3,6,9,12,15,18,21,24,27,30,33,36,39,42,45,48,51,54,57,60,63,66,69,72,75,78,81,84,87,90,93,96,99,102,105,108,111,114,117,120,123,126,129,132,135,138,141,144,147,150,153,156,159,162,165,168,171,174,177,180,183,186,189,192,195,198,201,204,207,210,213,216,219,222,225,228,231,234,237,240,243,246,249,252,255,258,261,264,267,270,273,276,279,282,285,288,291,294,297,300,303,306,309,312,315,318,321,324,327,330,333,336,339,342,345,348,351,354,357,360,363,366,369,372,375,378,381,384,387,390,393,396,399,402,405,408],"tree_info":[0,1,2,0,1,2,0,1,2,0,1,2,0,1,2,0,1,2,0,1,2,0,1,2,0,1,2,0,1,2,0,1,2,0,1,2,0,1,2,0,1,2,0,1,2,0,1,2,0,1,2,0,1,2,0,1,2,0,1,2,0,1,2,0,1,2,0,1,2,0,1,2,0,1,2,0,1,2,0,1,2,0,1,2,0,1,2,0,1,2,0,1,2,0,1,2,0,1,2,0,1,2,0,1,2,0,1,2,0,1,2,0,1,2,0,1,2,0,1,2,0,1,2,0,1,2,0,1,2,0,1,2,0,1,2,0,1,2,0,1,2,0,1,2,0,1,2,0,1,2,0,1,2,0,1,2,0,1,2,0,1,2,0,1,2,0,1,2,0,1,2,0,1,2,0,1,2,0,1,2,0,1,2,0,1,2,0,1,2,0,1,2,0,1,2,0,1,2,0,1,2,0,1,2,0,1,2,0,1,2,0,1,2,0,1,2,0,1,2,0,1,2,0,1,2,0,1,2,0,1,2,0,1,2,0,1,2,0,1,2,0,1,2,0,1,2,0,1,2,0,1,2,0,1,2,0,1,2,0,1,2,0,1,2,0,1,2,0,1,2,0,1,2,0,1,2,0,1,2,0,1,2,0,1,2,0,1,2,0,1,2,0,1,2,0,1,2,0,1,2,0,1,2,0,1,2,0,1,2,0,1,2,0,1,2,0,1,2,0,1,2,0,1,2,0,1,2,0,1,2,0,1,2,0,1,2,0,1,2,0,1,2,0,1,2,0,1,2,0,1,2,0,1,2,0,1,2,0,1,2,0,1,2,0,1,2,0,1,2,0,1,2,0,1,2,0,1,2,0,1,2,0,1,2,0,1,2,0,1,2,0,1,2,0,1,2,0,1,2,0,1,2,0,1,2,0,1,2],"trees":[{"base_weights":[-6.7496456E-2,-7.164615E-2,7.7676144E-3,-2.865672E-1,-5.9421074E-2,2.1019104E-1,-3.7456247E-1,-6.987829E-2,1.8518515E-1,5.9999996E-1,-4.934346E-3,-4.723405E-1,7.453412E-2,-7.838872E-2,2.2641505E-1,-1.9723189E-1,4.276169E-1,1.0033169E-2,-5.4726377E-3,-5.447025E-3,2.0616096E-3,6.425737E-3,-5.573983E-3,-8.9417706E-4,1.5863813E-3,-4.35454E-10,6.1219335E-3,3.0871283E-3,-5.1551643E-3,-1.9212456E-3,6.9314316E-3],"categories":[],"categories_nodes":[],"categories_segments":[],"categories_sizes":[],"default_left":[0,0,0,0,0,0,0,0,0,0,0,0,0,0,0,0,0,0,0,0,0,0,0,0,0,0,0,0,0,0,0],"id":0,"left_children":[1,3,-1,5,7,9,11,13,15,17,-1,19,21,23,25,27,29,-1,-1,-1,-1,-1,-1,-1,-1,-1,-1,-1,-1,-1,-1],"loss_changes":[7.351823E0,5.4471407E0,0E0,4.9599447E0,5.049446E0,5.0686436E0,4.2165804E0,4.781022E0,7.593851E0,5.8909087E0,0E0,3.8580685E0,6.734578E0,4.6772585E0,4.605052E0,5.2910266E0,8.2627E0,0E0,0E0,0E0,0E0,0E0,0E0,0E0,0E0,0E0,0E0,0E0,0E0,0E0,0E0],"parents":[2147483647,0,0,1,1,3,3,4,4,5,5,6,6,7,7,8,8,9,9,11,11,12,12,13,13,14,14,15,15,16,16],"right_children":[2,4,-1,6,8,10,12,14,16,18,-1,20,22,24,26,28,30,-1,-1,-1,-1,-1,-1,-1,-1,-1,-1,-1,-1,-1,-1],"split_conditions":[9.9924093E-1,1.5474115E-2,7.7676144E-3,1.9914769E-1,4.4475988E-1,7.2749394E-1,6.8283236E-1,8.199961E-1,8.501023E-2,7.4633074E-1,-4.934346E-3,8.3752185E-1,6.284117E-1,8.3865374E-1,1.2790598E-1,5.532288E-1,6.7687005E-1,1.0033169E-2,-5.4726377E-3,-5.447025E-3,2.0616096E-3,6.425737E-3,-5.573983E-3,-8.9417706E-4,1.5863813E-3,-4.35454E-10,6.1219335E-3,3.0871283E-3,-5.1551643E-3,-1.9212456E-3,6.9314316E-3],"split_indices":[845,161,0,479,33,446,243,723,865,767,0,372,440,384,481,787,30,0,0,0,0,0,0,0,0,0,0,0,0,0,0],"split_type":[0,0,0,0,0,0,0,0,0,0,0,0,0,0,0,0,0,0,0,0,0,0,0,0,0,0,0,0,0,0,0],"sum_hessian":[2.0879998E3,2.0786665E3,9.333333E0,1.1066666E2,1.9679999E3,1.6444443E1,9.422221E1,1.8879999E3,7.999999E1,1.0666666E1,5.7777777E0,7.733333E1,1.6888887E1,1.8359999E3,5.1999996E1,3.1111109E1,4.8888885E1,7.9999995E0,2.6666665E0,7.022222E1,7.1111107E0,8.888888E0,7.9999995E0,1.7568888E3,7.911111E1,3.3333332E1,1.8666666E1,1.1999999E1,1.911111E1,1.4666666E1,3.422222E1],"tree_param":{"num_deleted":"0","num_feature":"896","num_nodes":"31","size_leaf_vector":"1"}},{"base_weights":[1.265882E-1,2.9535863E-1,1.053467E-1,2.5135532E-1,1.0654693E-2,1.7631459E-1,5.81156E-2,1.8655458E-1,6.996047E-1,-2.448984E-2,2.2016864E-1,-7.8348055E-2,1.22819625E-1,3.2192412E-1,-2.1037912E-2,-3.2540013E-3,8.4E-1,-1.015554E-1,5.744681E-1,2.3491652E-1,-4.199932E-3,-3.0156024E-2,-4.10072E-1,7.96414E-2,3.406113E-1,1.4623237E-3,6.8996E-3,9.452733E-4,-6.1742584E-3,-2.736319E-3,9.883421E-3,-3.3012365E-3,6.615272E-4,1.068047E-2,-3.1683696E-3,-1.3030134E-4,2.7139415E-3,8.093981E-4,-2.089867E-3,-5.8660386E-3,1.0654689E-3,3.001837E-3,2.755539E-4,7.846953E-3,2.1140117E-3],"categories":[],"categories_nodes":[],"categories_segments":[],"categories_sizes":[],"default_left":[0,0,0,0,0,0,0,0,0,0,0,0,0,0,0,0,0,0,0,0,0,0,0,0,0,0,0,0,0,0,0,0,0,0,0,0,0,0,0,0,0,0,0,0,0],"id":1,"left_children":[1,3,5,7,-1,9,11,13,15,17,19,21,23,25,27,-1,29,31,33,35,-1,37,39,41,43,-1,-1,-1,-1,-1,-1,-1,-1,-1,-1,-1,-1,-1,-1,-1,-1,-1,-1,-1,-1],"loss_changes":[7.586872E0,7.7276573E0,6.321474E0,6.417944E0,0E0,6.648117E0,1.0037272E1,5.5802755E0,4.3135395E0,6.341096E0,5.931757E0,5.836898E0,7.221158E0,7.6393633E0,5.4847083E0,0E0,4.304369E0,4.6487246E0,7.1710443E0,5.3477554E0,0E0,6.345506E0,4.238405E0,7.375476E0,7.1318502E0,0E0,0E0,0E0,0E0,0E0,0E0,0E0,0E0,0E0,0E0,0E0,0E0,0E0,0E0,0E0,0E0,0E0,0E0,0E0,0E0],"parents":[2147483647,0,0,1,1,2,2,3,3,5,5,6,6,7,7,8,8,9,9,10,10,11,11,12,12,13,13,14,14,16,16,17,17,18,18,19,19,21,21,22,22,23,23,24,24],"right_children":[2,4,6,8,-1,10,12,14,16,18,20,22,24,26,28,-1,30,32,34,36,-1,38,40,42,44,-1,-1,-1,-1,-1,-1,-1,-1,-1,-1,-1,-1,-1,-1,-1,-1,-1,-1,-1,-1],"split_conditions":[6.1961114E-1,9.947001E-1,4.571937E-1,7.1563816E-1,1.0654693E-2,3.1751454E-1,4.5652938E-1,5.3935945E-1,2.2835736E-1,6.060188E-1,8.5715276E-1,6.641776E-1,7.813069E-1,5.915687E-1,8.087899E-1,-3.2540013E-3,6.113676E-1,4.6265438E-1,7.697702E-1,2.817382E-1,-4.199932E-3,4.8063657E-1,5.914706E-1,4.5047265E-1,4.672367E-2,1.4623237E-3,6.8996E-3,9.452733E-4,-6.1742584E-3,-2.736319E-3,9.883421E-3,-3.3012365E-3,6.615272E-4,1.068047E-2,-3.1683696E-3,-1.3030134E-4,2.7139415E-3,8.093981E-4,-2.089867E-3,-5.8660386E-3,1.0654689E-3,3.001837E-3,2.755539E-4,7.846953E-3,2.1140117E-3],"split_indices":[830,48,128,636,0,512,309,0,159,664,286,256,414,352,884,0,286,256,735,668,0,56,224,466,545,0,0,0,0,0,0,0,0,0,0,0,0,0,0,0,0,0,0,0,0],"split_type":[0,0,0,0,0,0,0,0,0,0,0,0,0,0,0,0,0,0,0,0,0,0,0,0,0,0,0,0,0,0,0,0,0,0,0,0,0,0,0,0,0,0,0,0,0],"sum_hessian":[2.1239998E3,2.3599998E2,1.8879999E3,2.2444443E2,1.1555555E1,7.533333E2,1.1346666E3,1.9733333E2,2.7111109E1,1.351111E2,6.1822217E2,3.6488885E2,7.697777E2,1.1911111E2,7.822221E1,3.111111E0,2.3999998E1,1.20444435E2,1.4666666E1,6.0488885E2,1.3333332E1,3.1955554E2,4.5333332E1,6.4355554E2,1.2622221E2,8.133333E1,3.7777775E1,6.622222E1,1.1999999E1,2.6666665E0,2.1333332E1,5.0666664E1,6.977777E1,9.333333E0,5.333333E0,7.599999E1,5.2888885E2,1.9733333E2,1.2222221E2,3.3777775E1,1.1555555E1,1.2266666E2,5.2088885E2,2.7555553E1,9.8666664E1],"tree_param":{"num_deleted":"0","num_feature":"896","num_nodes":"45","size_leaf_vector":"1"}},{"base_weights":[-8.5478716E-2,4.0577885E-2,-1.1159323E-1,1.653543E-1,-1.3485634E-1,-1.2889107E-1,1.2676053E-1,1.00659035E-1,5.9999996E-1,-1.9331747E-1,5.5045867E-1,-1.0429795E-1,-2.7625903E-1,-4.4776124E-1,2.577319E-1,3.0790564E-1,-5.642638E-2,9.047619E-1,-3.704555E-3,-2.8382218E-1,2.7272725E-1,-4.934349E-4,1.1089291E-2,3.9257027E-2,-1.3760932E-1,-5.1712818E-3,-1.5923572E-1,-7.070354E-3,2.459016E-1,4.6397185E-1,-1.24600686E-1,3.916123E-3,-5.2346974E-3,-3.0662706E-3,1.9238855E-3,-8.135005E-4,1.08433E-2,-3.5411192E-3,4.3442585E-3,-4.459187E-3,6.8108374E-3,2.0406442E-3,-1.0775485E-3,1.4858709E-3,-1.5937092E-3,5.6471827E-4,-2.877906E-3,8.948502E-3,-5.4726377E-3,1.7705588E-3,7.394688E-3,4.6306932E-3,-4.5516333E-3],"categories":[],"categories_nodes":[],"categories_segments":[],"categories_sizes":[],"default_left":[0,0,0,0,0,0,0,0,0,0,0,0,0,0,0,0,0,0,0,0,0,0,0,0,0,0,0,0,0,0,0,0,0,0,0,0,0,0,0,0,0,0,0,0,0,0,0,0,0,0,0,0,0],"id":2,"left_children":[1,3,5,7,9,11,13,15,17,19,21,23,25,27,29,31,33,35,-1,37,39,-1,-1,41,43,-1,45,-1,47,49,51,-1,-1,-1,-1,-1,-1,-1,-1,-1,-1,-1,-1,-1,-1,-1,-1,-1,-1,-1,-1,-1,-1],"loss_changes":[6.923751E0,7.9343367E0,7.1963215E0,5.891568E0,6.1472178E0,5.8573475E0,9.019503E0,6.0545955E0,8.3750925E0,5.968441E0,4.0835104E0,6.66887E0,6.401638E0,4.1536994E0,7.7064786E0,5.6810565E0,6.634569E0,3.7309608E0,0E0,5.9716444E0,7.0651035E0,0E0,0E0,6.357865E0,6.886509E0,0E0,4.3338346E0,0E0,3.9513435E0,4.833064E0,6.9170995E0,0E0,0E0,0E0,0E0,0E0,0E0,0E0,0E0,0E0,0E0,0E0,0E0,0E0,0E0,0E0,0E0,0E0,0E0,0E0,0E0,0E0,0E0],"parents":[2147483647,0,0,1,1,2,2,3,3,4,4,5,5,6,6,7,7,8,8,9,9,10,10,11,11,12,12,13,13,14,14,15,15,16,16,17,17,19,19,20,20,23,23,24,24,26,26,28,28,29,29,30,30],"right_children":[2,4,6,8,10,12,14,16,18,20,22,24,26,28,30,32,34,36,-1,38,40,-1,-1,42,44,-1,46,-1,48,50,52,-1,-1,-1,-1,-1,-1,-1,-1,-1,-1,-1,-1,-1,-1,-1,-1,-1,-1,-1,-1,-1,-1],"split_conditions":[2.2084275E-1,4.8755017E-1,7.773071E-1,6.4098865E-1,6.8867767E-1,7.909349E-1,3.3124503E-2,3.8945153E-1,8.0473185E-1,7.7939284E-1,5.2309805E-1,3.952021E-2,6.600453E-2,6.5537673E-1,1.07192285E-1,7.889394E-1,7.158147E-1,2.740761E-1,-3.704555E-3,6.2567633E-1,5.6858766E-1,-4.934349E-4,1.1089291E-2,4.8817238E-1,9.5956457E-1,-5.1712818E-3,4.0512872E-1,-7.070354E-3,2.216169E-2,7.043601E-1,3.873883E-1,3.916123E-3,-5.2346974E-3,-3.0662706E-3,1.9238855E-3,-8.135005E-4,1.08433E-2,-3.5411192E-3,4.3442585E-3,-4.459187E-3,6.8108374E-3,2.0406442E-3,-1.0775485E-3,1.4858709E-3,-1.5937092E-3,5.6471827E-4,-2.877906E-3,8.948502E-3,-5.4726377E-3,1.7705588E-3,7.394688E-3,4.6306932E-3,-4.5516333E-3],"split_indices":[735,512,629,544,435,702,449,544,544,606,252,481,833,51,513,384,350,864,0,820,512,0,0,52,496,0,864,0,449,542,120,0,0,0,0,0,0,0,0,0,0,0,0,0,0,0,0,0,0,0,0,0,0],"split_type":[0,0,0,0,0,0,0,0,0,0,0,0,0,0,0,0,0,0,0,0,0,0,0,0,0,0,0,0,0,0,0,0,0,0,0,0,0,0,0,0,0,0,0,0,0,0,0,0,0,0,0,0,0],"sum_hessian":[2.1008887E3,3.6044443E2,1.7404443E3,2.1066666E2,1.4977777E2,1.623111E3,1.1733333E2,1.8444443E2,2.6222221E1,1.3866666E2,1.1111111E1,1.3924443E3,2.3066666E2,2.1333332E1,9.599999E1,7.911111E1,1.0533333E2,1.9999998E1,6.222222E0,1.16444435E2,2.2222221E1,5.7777777E0,5.333333E0,2.622222E2,1.1302222E3,7.4666664E1,1.5599998E2,1.5555554E1,5.7777777E0,6.2222218E1,3.3777775E1,7.244444E1,6.666666E0,5.2444443E1,5.2888885E1,3.111111E0,1.6888887E1,1.0666666E2,9.777777E0,7.9999995E0,1.4222221E1,1.2355555E2,1.3866666E2,7.777777E1,1.0524443E3,5.8222218E1,9.777777E1,3.111111E0,2.6666665E0,3.1111109E1,3.1111109E1,1.1999999E1,2.1777777E1],"tree_param":{"num_deleted":"0","num_feature":"896","num_nodes":"53","size_leaf_vector":"1"}},{"base_weights":[-4.176851E-2,-4.619714E-2,8.708501E-3,-3.288379E-2,-2.7623153E-1,2.8024188E-1,-4.108547E-2,7.3239207E-3,-4.8390463E-1,-2.0439278E-1,5.245075E-1,-3.6740798E-1,-3.2194927E-2,-3.9856952E-1,2.535435E-1,-5.370295E-3,5.4765926E-3,8.214944E-3,-4.389181E-3,-4.9321926E-3,7.497615E-3,5.131297E-3,-4.4451496E-3,-4.4226486E-4,2.0968101E-3,-5.8550574E-3,5.4668547E-3,6.2430967E-3,-2.641508E-3],"categories":[],"categories_nodes":[],"categories_segments":[],"categories_sizes":[],"default_left":[0,0,0,0,0,0,0,0,0,0,0,0,0,0,0,0,0,0,0,0,0,0,0,0,0,0,0,0,0],"id":3,"left_children":[1,3,-1,5,7,9,11,13,15,17,19,21,23,25,27,-1,-1,-1,-1,-1,-1,-1,-1,-1,-1,-1,-1,-1,-1],"loss_changes":[8.602664E0,6.4710464E0,0E0,5.151206E0,6.8124084E0,6.1694484E0,5.6486874E0,5.0847626E0,3.8221836E0,4.6223373E0,8.138174E0,3.6600213E0,5.456941E0,3.6721466E0,6.1948576E0,0E0,0E0,0E0,0E0,0E0,0E0,0E0,0E0,0E0,0E0,0E0,0E0,0E0,0E0],"parents":[2147483647,0,0,1,1,3,3,4,4,5,5,6,6,7,7,8,8,9,9,10,10,11,11,12,12,13,13,14,14],"right_children":[2,4,-1,6,8,10,12,14,16,18,20,22,24,26,28,-1,-1,-1,-1,-1,-1,-1,-1,-1,-1,-1,-1,-1,-1],"split_conditions":[9.978828E-1,3.8849658E-1,8.708501E-3,5.663239E-1,4.4469962E-1,3.716927E-1,5.8148324E-1,7.615101E-2,7.269894E-1,2.1993469E-1,3.399117E-1,2.4865108E-2,8.3145744E-1,5.990204E-1,1.1219239E-1,-5.370295E-3,5.4765926E-3,8.214944E-3,-4.389181E-3,-4.9321926E-3,7.497615E-3,5.131297E-3,-4.4451496E-3,-4.4226486E-4,2.0968101E-3,-5.8550574E-3,5.4668547E-3,6.2430967E-3,-2.641508E-3],"split_indices":[718,737,0,350,499,85,414,449,758,248,256,449,576,288,385,0,0,0,0,0,0,0,0,0,0,0,0,0,0],"split_type":[0,0,0,0,0,0,0,0,0,0,0,0,0,0,0,0,0,0,0,0,0,0,0,0,0,0,0,0,0],"sum_hessian":[2.1242876E3,2.1149412E3,9.346349E0,2.0003151E3,1.1462623E2,5.0210197E1,1.9501049E3,4.8867546E1,6.575868E1,1.6880909E1,3.332929E1,5.0651302E1,1.8994535E3,1.8217388E1,3.0650156E1,6.3092728E1,2.6659565E0,2.6657224E0,1.4215187E1,5.776329E0,2.755296E1,3.5572712E0,4.7094032E1,1.8110245E3,8.842903E1,1.5549699E1,2.66769E0,1.7769403E1,1.2880752E1],"tree_param":{"num_deleted":"0","num_feature":"896","num_nodes":"29","size_leaf_vector":"1"}},{"base_weights":[1.0449623E-1,4.7763353E-3,1.3956024E-1,-6.623943E-2,1.797172E-1,1.6783497E-1,-1.7711995E-2,-3.3662606E-2,-4.804644E-3,8.008053E-1,7.035552E-2,1.6096509E-1,9.910583E-3,-1.4588293E-1,2.0422286E-1,-4.804373E-1,-6.810722E-4,1.0147018E0,-2.01477E-3,8.586891E-3,-3.268513E-3,1.8474177E-1,-3.0823143E-2,-9.1278186E-4,-3.6939946E-1,6.374037E-2,8.037458E-1,-6.2932046E-3,5.4661706E-3,6.012245E-3,-2.62615E-4,1.2218848E-2,7.3165674E-4,-7.079532E-4,6.344177E-3,9.019258E-5,2.2096348E-3,8.128943E-3,-8.8869367E-4,5.1515615E-3,-1.297414E-3,-5.377982E-3,1.527753E-3,4.353796E-3,-1.5218701E-3,1.0334423E-2,-2.7390982E-3],"categories":[],"categories_nodes":[],"categories_segments":[],"categories_sizes":[],"default_left":[0,0,0,0,0,0,0,0,0,0,0,0,0,0,0,0,0,0,0,0,0,0,0,0,0,0,0,0,0,0,0,0,0,0,0,0,0,0,0,0,0,0,0,0,0,0,0],"id":4,"left_children":[1,3,5,7,9,11,13,15,-1,17,19,21,-1,23,25,27,29,31,-1,-1,33,35,37,39,41,43,45,-1,-1,-1,-1,-1,-1,-1,-1,-1,-1,-1,-1,-1,-1,-1,-1,-1,-1,-1,-1],"loss_changes":[7.3676815E0,6.83554E0,6.935808E0,5.2451496E0,1.0733654E1,7.285324E0,6.8135543E0,5.3608327E0,0E0,5.2785826E0,7.8775964E0,5.987541E0,0E0,4.917142E0,7.337019E0,4.1060567E0,5.212918E0,3.6770897E0,0E0,0E0,5.412122E0,7.278858E0,7.141153E0,6.2122498E0,5.2710304E0,5.820254E0,4.317747E0,0E0,0E0,0E0,0E0,0E0,0E0,0E0,0E0,0E0,0E0,0E0,0E0,0E0,0E0,0E0,0E0,0E0,0E0,0E0,0E0],"parents":[2147483647,0,0,1,1,2,2,3,3,4,4,5,5,6,6,7,7,9,9,10,10,11,11,13,13,14,14,15,15,16,16,17,17,20,20,21,21,22,22,23,23,24,24,25,25,26,26],"right_children":[2,4,6,8,10,12,14,16,-1,18,20,22,-1,24,26,28,30,32,-1,-1,34,36,38,40,42,44,46,-1,-1,-1,-1,-1,-1,-1,-1,-1,-1,-1,-1,-1,-1,-1,-1,-1,-1,-1,-1],"split_conditions":[3.9074647E-1,1.4450182E-1,8.469584E-1,3.0634305E-1,6.32934E-1,8.2787627E-1,7.496617E-1,2.8647295E-1,-4.804644E-3,6.4583284E-1,2.420619E-1,6.561954E-1,9.910583E-3,1.08077064E-1,9.508754E-1,9.9134755E-1,2.288177E-1,1.9333054E-1,-2.01477E-3,8.586891E-3,6.1949164E-1,1.7668834E-1,1.8062051E-2,5.539037E-1,7.496617E-1,7.724441E-1,8.264756E-1,-6.2932046E-3,5.4661706E-3,6.012245E-3,-2.62615E-4,1.2218848E-2,7.3165674E-4,-7.079532E-4,6.344177E-3,9.019258E-5,2.2096348E-3,8.128943E-3,-8.8869367E-4,5.1515615E-3,-1.297414E-3,-5.377982E-3,1.527753E-3,4.353796E-3,-1.5218701E-3,1.0334423E-2,-2.7390982E-3],"split_indices":[723,609,404,33,766,536,469,19,0,543,32,178,0,161,468,874,402,1,0,0,503,20,609,502,597,575,598,0,0,0,0,0,0,0,0,0,0,0,0,0,0,0,0,0,0,0,0],"split_type":[0,0,0,0,0,0,0,0,0,0,0,0,0,0,0,0,0,0,0,0,0,0,0,0,0,0,0,0,0,0,0,0,0,0,0,0,0,0,0,0,0,0,0,0,0,0,0],"sum_hessian":[2.1063015E3,5.4824963E2,1.5580519E3,3.9039386E2,1.5785574E2,1.32057E3,2.3748196E2,3.628307E2,2.7563175E1,2.2687288E1,1.3516846E2,1.3107839E3,9.786023E0,1.5075894E2,8.672303E1,2.4010645E1,3.3882004E2,1.8684189E1,4.0031004E0,1.0673053E1,1.244954E2,1.166238E3,1.4454594E2,9.2056366E1,5.8702576E1,7.1155846E1,1.5567187E1,2.1342823E1,2.6678214E0,1.2893913E1,3.2592615E2,1.512793E1,3.5562592E0,1.1338029E2,1.1115117E1,1.9615125E2,9.7008673E2,8.450792E0,1.3609514E2,1.7790245E1,7.426612E1,4.447105E1,1.42315235E1,2.5801836E1,4.5354008E1,1.2899698E1,2.6674895E0],"tree_param":{"num_deleted":"0","num_feature":"896","num_nodes":"47","size_leaf_vector":"1"}},{"base_weights":[-6.936547E-2,-1.7964024E-2,-1.2606236E-1,-5.9904646E-2,1.3637404E-1,-7.592804E-2,-2.3478392E-1,8.1281483E-1,-6.943635E-2,8.3533846E-2,7.147588E-3,-3.987482E-1,-4.042052E-2,1.0917619E-2,-2.4961878E-1,1.2837766E-2,-2.728832E-3,2.407362E-1,-8.9018054E-2,3.7192397E-2,6.1125386E-1,3.2871604E-1,-4.8963127E-1,-1.7034334E-1,3.9926603E-2,2.5927556E-1,-2.8459802E-1,-4.728882E-3,4.025939E-3,-1.3254167E-3,8.225959E-4,-5.595981E-3,8.2814385E-4,1.0650232E-2,-4.5425706E-3,-5.6932857E-3,1.0029349E-2,-5.485499E-3,5.467423E-3,-1.0789954E-3,-5.49548E-3,8.807399E-3,2.3808275E-4,-6.423108E-4,1.0789983E-2,-4.92856E-3,-1.9504429E-3],"categories":[],"categories_nodes":[],"categories_segments":[],"categories_sizes":[],"default_left":[0,0,0,0,0,0,0,0,0,0,0,0,0,0,0,0,0,0,0,0,0,0,0,0,0,0,0,0,0,0,0,0,0,0,0,0,0,0,0,0,0,0,0,0,0,0,0],"id":5,"left_children":[1,3,5,7,9,11,13,15,17,19,-1,21,23,-1,25,-1,-1,27,29,31,33,35,37,39,41,43,45,-1,-1,-1,-1,-1,-1,-1,-1,-1,-1,-1,-1,-1,-1,-1,-1,-1,-1,-1,-1],"loss_changes":[6.109268E0,7.135451E0,5.4165564E0,7.2643495E0,7.110903E0,7.8223715E0,6.4374866E0,5.127489E0,5.232983E0,5.282096E0,0E0,4.6335754E0,6.4495516E0,0E0,5.6187954E0,0E0,0E0,6.0442047E0,5.9627905E0,5.4547014E0,8.838501E0,5.444062E0,3.874505E0,5.5349255E0,5.1656647E0,5.4931645E0,5.345688E0,0E0,0E0,0E0,0E0,0E0,0E0,0E0,0E0,0E0,0E0,0E0,0E0,0E0,0E0,0E0,0E0,0E0,0E0,0E0,0E0],"parents":[2147483647,0,0,1,1,2,2,3,3,4,4,5,5,6,6,7,7,8,8,9,9,11,11,12,12,14,14,17,17,18,18,19,19,20,20,21,21,22,22,23,23,24,24,25,25,26,26],"right_children":[2,4,6,8,10,12,14,16,18,20,-1,22,24,-1,26,-1,-1,28,30,32,34,36,38,40,42,44,46,-1,-1,-1,-1,-1,-1,-1,-1,-1,-1,-1,-1,-1,-1,-1,-1,-1,-1,-1,-1],"split_conditions":[5.056444E-1,4.7771394E-1,5.880201E-1,1.5247332E-2,6.821919E-1,4.4925815E-1,1.7478406E-1,3.9583594E-1,9.5793925E-2,3.3236885E-1,7.147588E-3,3.956755E-1,4.4398907E-1,1.0917619E-2,9.611154E-1,1.2837766E-2,-2.728832E-3,6.4113754E-1,7.952093E-1,6.017226E-1,5.2818245E-1,9.892831E-2,8.290767E-1,2.343195E-1,3.820093E-1,1.1125999E-1,5.190875E-1,-4.728882E-3,4.025939E-3,-1.3254167E-3,8.225959E-4,-5.595981E-3,8.2814385E-4,1.0650232E-2,-4.5425706E-3,-5.6932857E-3,1.0029349E-2,-5.485499E-3,5.467423E-3,-1.0789954E-3,-5.49548E-3,8.807399E-3,2.3808275E-4,-6.423108E-4,1.0789983E-2,-4.92856E-3,-1.9504429E-3],"split_indices":[157,216,700,788,341,86,403,181,660,545,0,216,640,0,236,0,0,798,628,446,352,257,469,513,53,417,343,0,0,0,0,0,0,0,0,0,0,0,0,0,0,0,0,0,0,0,0],"split_type":[0,0,0,0,0,0,0,0,0,0,0,0,0,0,0,0,0,0,0,0,0,0,0,0,0,0,0,0,0,0,0,0,0,0,0,0,0,0,0,0,0,0,0,0,0,0,0],"sum_hessian":[2.0960825E3,1.1000726E3,9.9600995E2,8.654914E2,2.3458124E2,6.8283527E2,3.131747E2,8.44014E0,8.570513E2,2.1591933E2,1.8661907E1,6.665002E1,6.1618524E2,2.6705525E0,3.1050415E2,5.77571E0,2.66443E0,5.0223373E1,8.068279E2,1.9947318E2,1.644615E1,7.111315E0,5.95387E1,2.3502512E2,3.8116016E2,1.9557676E1,2.9094647E2,8.883228E0,4.134015E1,6.4463696E2,1.6219089E2,1.332735E1,1.8614583E2,1.1557717E1,4.8884335E0,3.1105657E0,4.000749E0,5.6871105E1,2.667595E0,2.0259634E2,3.2428764E1,6.219461E0,3.749407E2,1.4668695E1,4.88898E0,8.7060486E1,2.0388599E2],"tree_param":{"num_deleted":"0","num_feature":"896","num_nodes":"47","size_leaf_vector":"1"}},{"base_weights":[-6.917768E-2,-7.926032E-2,6.0343194E-1,-1.3403271E-1,-2.2699468E-2,3.111178E-1,1.2346546E-2,1.6414121E-1,-1.5314914E-1,-1.8324055E-1,1.4995339E-2,7.161126E-1,-2.7192903E-3,6.0100824E-1,-4.5248747E-2,1.5134227E-1,-1.7508668E-1,-7.583213E-2,-5.3450167E-3,-8.610018E-2,1.10921666E-1,-2.7327377E-3,9.886647E-3,-2.3031058E-3,9.804907E-3,4.1578608E-3,-3.0402981E-3,9.760455E-3,2.9175606E-4,-2.4290308E-3,-6.8376603E-4,2.4082854E-3,-2.0471064E-3,1.2817627E-3,-1.876141E-3,2.2539992E-3,3.6786572E-5],"categories":[],"categories_nodes":[],"categories_segments":[],"categories_sizes":[],"default_left":[0,0,0,0,0,0,0,0,0,0,0,0,0,0,0,0,0,0,0,0,0,0,0,0,0,0,0,0,0,0,0,0,0,0,0,0,0],"id":6,"left_children":[1,3,5,7,9,11,-1,13,15,17,19,21,-1,23,25,27,29,31,-1,33,35,-1,-1,-1,-1,-1,-1,-1,-1,-1,-1,-1,-1,-1,-1,-1,-1],"loss_changes":[1.4147624E1,6.345563E0,5.267541E0,5.9582577E0,6.111092E0,5.466201E0,0E0,5.8080444E0,6.563999E0,7.1674285E0,7.9458904E0,3.851697E0,0E0,6.6446285E0,5.297627E0,6.6315885E0,6.52899E0,6.0437284E0,0E0,8.633148E0,5.1269026E0,0E0,0E0,0E0,0E0,0E0,0E0,0E0,0E0,0E0,0E0,0E0,0E0,0E0,0E0,0E0,0E0],"parents":[2147483647,0,0,1,1,2,2,3,3,4,4,5,5,7,7,8,8,9,9,10,10,11,11,13,13,14,14,15,15,16,16,17,17,19,19,20,20],"right_children":[2,4,6,8,10,12,-1,14,16,18,20,22,-1,24,26,28,30,32,-1,34,36,-1,-1,-1,-1,-1,-1,-1,-1,-1,-1,-1,-1,-1,-1,-1,-1],"split_conditions":[9.9761224E-1,4.9313444E-1,6.1247146E-1,1.8070264E-2,2.1462582E-1,9.719771E-2,1.2346546E-2,4.014447E-1,1.8070264E-2,5.632533E-1,8.952907E-2,6.364224E-1,-2.7192903E-3,3.8985717E-1,2.5544336E-1,2.3911019E-1,5.4372966E-1,3.6184305E-1,-5.3450167E-3,4.4909596E-1,5.5017424E-1,-2.7327377E-3,9.886647E-3,-2.3031058E-3,9.804907E-3,4.1578608E-3,-3.0402981E-3,9.760455E-3,2.9175606E-4,-2.4290308E-3,-6.8376603E-4,2.4082854E-3,-2.0471064E-3,1.2817627E-3,-1.876141E-3,2.2539992E-3,3.6786572E-5],"split_indices":[876,86,160,833,596,865,0,884,385,374,353,766,0,733,319,117,672,160,0,691,82,0,0,0,0,0,0,0,0,0,0,0,0,0,0,0,0],"split_type":[0,0,0,0,0,0,0,0,0,0,0,0,0,0,0,0,0,0,0,0,0,0,0,0,0,0,0,0,0,0,0,0,0,0,0,0,0],"sum_hessian":[2.0780994E3,2.048277E3,2.9822208E1,1.0398945E3,1.00838257E3,2.1361551E1,8.460656E0,6.219555E1,9.7769904E2,1.9101103E2,8.173716E2,1.2461843E1,8.899709E0,1.9545635E1,4.264991E1,6.530947E1,9.123896E2,1.4703914E2,4.3971893E1,3.9801312E2,4.1935846E2,2.665585E0,9.796258E0,6.215256E0,1.33303795E1,1.5105852E1,2.754406E1,7.5596952E0,5.7749775E1,5.601179E2,3.5227164E2,4.2198307E1,1.04840836E2,1.2749993E2,2.7051318E2,2.0300157E2,2.1635689E2],"tree_param":{"num_deleted":"0","num_feature":"896","num_nodes":"37","size_leaf_vector":"1"}},{"base_weights":[1.1053354E-1,1.6733734E-2,1.4775766E-1,1.0423624E-2,3.4508046E-3,1.6945347E-1,-3.3911977E-2,4.6362475E-2,-2.747283E-1,1.476112E-1,4.1447058E-1,6.311681E-1,-1.1602987E-1,6.32536E-2,-6.8831784E-3,-4.1028297E-1,4.1852498E-1,1.7771192E-1,-2.5291815E-2,8.770368E-1,2.376475E-1,-1.5848073E-3,9.816753E-3,-4.6748552E-2,-7.03726E-3,4.7023004E-4,9.168323E-3,-4.755671E-3,8.173801E-3,-4.3091504E-3,8.8755675E-3,-3.2407995E-3,1.8922559E-3,4.1763074E-4,-4.7270143E-3,1.0033895E-2,-2.7588387E-3,-1.3132056E-3,4.903609E-3,-1.1447176E-3,5.2739778E-3],"categories":[],"categories_nodes":[],"categories_segments":[],"categories_sizes":[],"default_left":[0,0,0,0,0,0,0,0,0,0,0,0,0,0,0,0,0,0,0,0,0,0,0,0,0,0,0,0,0,0,0,0,0,0,0,0,0,0,0,0,0],"id":7,"left_children":[1,3,5,-1,7,9,11,13,15,17,19,21,23,25,-1,27,29,31,33,35,37,-1,-1,39,-1,-1,-1,-1,-1,-1,-1,-1,-1,-1,-1,-1,-1,-1,-1,-1,-1],"loss_changes":[7.345146E0,8.129117E0,5.943096E0,0E0,7.0830965E0,7.1413956E0,8.89572E0,6.402141E0,7.623956E0,6.443699E0,8.756269E0,5.0621176E0,5.8327465E0,6.972102E0,0E0,5.6023684E0,5.7021084E0,5.8067284E0,5.518999E0,4.5184917E0,7.5282974E0,0E0,0E0,5.0865297E0,0E0,0E0,0E0,0E0,0E0,0E0,0E0,0E0,0E0,0E0,0E0,0E0,0E0,0E0,0E0,0E0,0E0],"parents":[2147483647,0,0,1,1,2,2,4,4,5,5,6,6,7,7,8,8,9,9,10,10,11,11,12,12,13,13,15,15,16,16,17,17,18,18,19,19,20,20,23,23],"right_children":[2,4,6,-1,8,10,12,14,16,18,20,22,24,26,-1,28,30,32,34,36,38,-1,-1,40,-1,-1,-1,-1,-1,-1,-1,-1,-1,-1,-1,-1,-1,-1,-1,-1,-1],"split_conditions":[3.9444843E-1,5.473472E-1,8.6593306E-1,1.0423624E-2,2.4096401E-1,6.7871934E-1,5.3859E-1,7.050825E-1,7.935265E-1,6.217942E-1,4.212921E-1,5.008532E-1,7.352557E-1,9.3860453E-1,-6.8831784E-3,9.685521E-1,2.3629868E-1,3.5699647E-2,7.1553665E-1,6.944671E-1,4.863682E-1,-1.5848073E-3,9.816753E-3,8.1851596E-1,-7.03726E-3,4.7023004E-4,9.168323E-3,-4.755671E-3,8.173801E-3,-4.3091504E-3,8.8755675E-3,-3.2407995E-3,1.8922559E-3,4.1763074E-4,-4.7270143E-3,1.0033895E-2,-2.7588387E-3,-1.3132056E-3,4.903609E-3,-1.1447176E-3,5.2739778E-3],"split_indices":[608,638,404,0,449,246,500,733,446,22,886,115,184,543,0,564,756,564,796,640,672,0,0,472,0,0,0,0,0,0,0,0,0,0,0,0,0,0,0,0,0],"split_type":[0,0,0,0,0,0,0,0,0,0,0,0,0,0,0,0,0,0,0,0,0,0,0,0,0,0,0,0,0,0,0,0,0,0,0,0,0,0,0,0,0],"sum_hessian":[2.1033604E3,5.979801E2,1.5053802E3,6.6803703E0,5.9129974E2,1.3448407E3,1.6053966E2,5.129984E2,7.830135E1,1.2362375E3,1.0860305E2,1.6908676E1,1.4363098E2,5.023271E2,1.067131E1,6.5836296E1,1.2465063E1,1.0529088E3,1.8332884E2,2.8939037E1,7.966402E1,5.3336086E0,1.1575067E1,1.293962E2,1.4234799E1,4.9386768E2,8.459402E0,6.3164093E1,2.6722012E0,4.449041E0,8.016023E0,2.179804E1,1.0311107E3,1.6019234E2,2.3136507E1,2.6265722E1,2.6733143E0,3.2476395E1,4.718762E1,1.1649133E2,1.2904852E1],"tree_param":{"num_deleted":"0","num_feature":"896","num_nodes":"41","size_leaf_vector":"1"}},{"base_weights":[-7.1250945E-2,-4.9870055E-2,-2.2822127E-1,-3.7158728E-2,-3.3533666E-1,-2.5383392E-1,5.778797E-3,6.4496773E-1,-4.232203E-2,6.3258414E-3,-4.1509354E-3,-5.083828E-2,-3.572211E-1,1.0950637E-2,-1.1349807E-3,8.701469E-2,-7.059047E-2,-2.40218E-1,4.6989432E-1,-3.964278E-3,3.336166E-1,2.3367081E-4,6.14514E-3,-8.494951E-4,2.553993E-3,-3.3536782E-3,3.9110514E-3,6.508804E-4,1.1984234E-2,7.929261E-3,-5.4750186E-3],"categories":[],"categories_nodes":[],"categories_segments":[],"categories_sizes":[],"default_left":[0,0,0,0,0,0,0,0,0,0,0,0,0,0,0,0,0,0,0,0,0,0,0,0,0,0,0,0,0,0,0],"id":8,"left_children":[1,3,5,7,9,11,-1,13,15,-1,-1,17,19,-1,-1,21,23,25,27,-1,29,-1,-1,-1,-1,-1,-1,-1,-1,-1,-1],"loss_changes":[7.0736256E0,6.734117E0,5.3531075E0,6.300418E0,6.2518663E0,5.138074E0,0E0,4.673264E0,6.472665E0,0E0,0E0,8.403645E0,4.389065E0,0E0,0E0,1.0623398E1,6.66798E0,3.8222E0,6.601539E0,0E0,4.0448174E0,0E0,0E0,0E0,0E0,0E0,0E0,0E0,0E0,0E0,0E0],"parents":[2147483647,0,0,1,1,2,2,3,3,4,4,5,5,7,7,8,8,11,11,12,12,15,15,16,16,17,17,18,18,20,20],"right_children":[2,4,6,8,10,12,-1,14,16,-1,-1,18,20,-1,-1,22,24,26,28,-1,30,-1,-1,-1,-1,-1,-1,-1,-1,-1,-1],"split_conditions":[7.9751235E-1,9.954045E-1,9.1365397E-1,1.5697734E-1,2.2740135E-1,3.9844838E-1,5.778797E-3,1.03455275E-1,2.2282271E-1,6.3258414E-3,-4.1509354E-3,1.3044326E-1,9.304356E-1,1.0950637E-2,-1.1349807E-3,2.0585908E-1,9.9532205E-1,7.837827E-1,4.0379098E-1,-3.964278E-3,8.268101E-1,2.3367081E-4,6.14514E-3,-8.494951E-4,2.553993E-3,-3.3536782E-3,3.9110514E-3,6.508804E-4,1.1984234E-2,7.929261E-3,-5.4750186E-3],"split_indices":[478,401,318,627,824,725,0,801,287,0,0,705,436,0,0,287,717,220,723,0,414,0,0,0,0,0,0,0,0,0,0],"split_type":[0,0,0,0,0,0,0,0,0,0,0,0,0,0,0,0,0,0,0,0,0,0,0,0,0,0,0,0,0,0,0],"sum_hessian":[2.110042E3,1.8582482E3,2.5179387E2,1.780113E3,7.813514E1,2.4468526E2,7.1086125E0,1.2442283E1,1.7676708E3,5.3365335E0,7.279861E1,8.307106E1,1.616142E2,7.553776E0,4.888507E0,3.16681E2,1.4509897E3,6.1311886E1,2.1759176E1,1.5361563E2,7.9985723E0,2.8336136E2,3.3319656E1,1.3914808E3,5.9508957E1,5.3757286E1,7.554598E0,1.4656153E1,7.1030226E0,5.3310137E0,2.667559E0],"tree_param":{"num_deleted":"0","num_feature":"896","num_nodes":"31","size_leaf_vector":"1"}},{"base_weights":[-5.1726203E-2,-5.6603454E-2,8.836358E-3,-9.70256E-2,2.4822315E-2,7.870139E-3,-1.01874076E-1,1.4758914E-2,1.1025729E-2,1.6318116E-1,-1.16467826E-1,4.1840017E-2,-2.6193801E-3,6.0303654E-3,-3.8435924E-4,-1.4009596E-3,8.1936957E-4,-3.675943E-4,1.8228141E-3],"categories":[],"categories_nodes":[],"categories_segments":[],"categories_sizes":[],"default_left":[0,0,0,0,0,0,0,0,0,0,0,0,0,0,0,0,0,0,0],"id":9,"left_children":[1,3,-1,5,7,-1,9,11,-1,13,15,17,-1,-1,-1,-1,-1,-1,-1],"loss_changes":[9.480074E0,6.7950535E0,0E0,5.974617E0,7.3927116E0,0E0,5.3286676E0,5.091007E0,0E0,6.379632E0,5.9854946E0,6.812268E0,0E0,0E0,0E0,0E0,0E0,0E0,0E0],"parents":[2147483647,0,0,1,1,3,3,4,4,6,6,7,7,9,9,10,10,11,11],"right_children":[2,4,-1,6,8,-1,10,12,-1,14,16,18,-1,-1,-1,-1,-1,-1,-1],"split_conditions":[9.9788046E-1,7.43765E-1,8.836358E-3,2.5373832E-3,9.967319E-1,7.870139E-3,1.4934877E-2,7.482629E-1,1.1025729E-2,6.516159E-1,7.4193263E-1,5.317237E-1,-2.6193801E-3,6.0303654E-3,-3.8435924E-4,-1.4009596E-3,8.1936957E-4,-3.675943E-4,1.8228141E-3],"split_indices":[816,670,0,65,847,0,289,531,0,478,288,725,0,0,0,0,0,0,0],"split_type":[0,0,0,0,0,0,0,0,0,0,0,0,0,0,0,0,0,0,0],"sum_hessian":[2.072603E3,2.0627527E3,9.850198E0,1.3783217E3,6.84431E2,6.6605945E0,1.3716611E3,6.790824E2,5.34865E0,7.1050125E1,1.300611E3,6.191432E2,5.99392E1,2.1766323E1,4.9283802E1,1.1647308E3,1.3588014E2,3.970536E2,2.220896E2],"tree_param":{"num_deleted":"0","num_feature":"896","num_nodes":"19","size_leaf_vector":"1"}},{"base_weights":[1.2897108E-1,9.498149E-3,1.6206154E-1,-1.2065247E-1,1.8594459E-1,1.91878E-1,-2.8854923E-2,-3.9954343E-1,-4.520802E-2,4.4198284E-1,3.0690486E-2,6.318944E-2,2.3692207E-1,4.1633737E-1,-8.557829E-2,6.706236E-3,-5.0615063E-3,7.674445E-1,-9.279819E-2,-4.750157E-3,5.753854E-1,5.07557E-1,-1.0189431E-1,3.9943317E-1,-2.348613E-2,6.335041E-1,2.2013941E-1,-3.463961E-3,6.574615E-1,-1.1281979E-1,9.972521E-3,1.1096063E-2,-2.7451671E-3,-1.7745101E-3,2.1354042E-3,9.414285E-4,7.404202E-3,-5.70128E-3,6.7511294E-3,9.050931E-3,-1.6584711E-3,5.1035E-3,-3.1151138E-3,-3.3744539E-3,5.5365765E-4,3.7644333E-3,1.22056315E-2,7.0766704E-3,2.0338525E-3,1.0985434E-2,6.8374036E-4,-2.5847144E-3,6.1499886E-4],"categories":[],"categories_nodes":[],"categories_segments":[],"categories_sizes":[],"default_left":[0,0,0,0,0,0,0,0,0,0,0,0,0,0,0,0,0,0,0,0,0,0,0,0,0,0,0,0,0,0,0,0,0,0,0,0,0,0,0,0,0,0,0,0,0,0,0,0,0,0,0,0,0],"id":10,"left_children":[1,3,5,7,9,11,13,15,17,19,21,23,25,27,29,-1,-1,31,33,-1,35,37,39,41,43,45,47,-1,49,51,-1,-1,-1,-1,-1,-1,-1,-1,-1,-1,-1,-1,-1,-1,-1,-1,-1,-1,-1,-1,-1,-1,-1],"loss_changes":[8.336922E0,1.0552528E1,9.407433E0,5.547085E0,7.7395535E0,8.266552E0,5.6915545E0,6.6338425E0,8.16596E0,9.254331E0,7.796336E0,1.0844539E1,6.901554E0,4.906515E0,5.9787536E0,0E0,0E0,4.4209895E0,5.1408234E0,0E0,4.9921837E0,5.1515903E0,6.3033867E0,6.0706434E0,7.3164406E0,5.931635E0,8.451462E0,0E0,5.0036793E0,4.944087E0,0E0,0E0,0E0,0E0,0E0,0E0,0E0,0E0,0E0,0E0,0E0,0E0,0E0,0E0,0E0,0E0,0E0,0E0,0E0,0E0,0E0,0E0,0E0],"parents":[2147483647,0,0,1,1,2,2,3,3,4,4,5,5,6,6,7,7,8,8,9,9,10,10,11,11,12,12,13,13,14,14,17,17,18,18,20,20,21,21,22,22,23,23,24,24,25,25,26,26,28,28,29,29],"right_children":[2,4,6,8,10,12,14,16,18,20,22,24,26,28,30,-1,-1,32,34,-1,36,38,40,42,44,46,48,-1,50,52,-1,-1,-1,-1,-1,-1,-1,-1,-1,-1,-1,-1,-1,-1,-1,-1,-1,-1,-1,-1,-1,-1,-1],"split_conditions":[3.699401E-1,5.201602E-1,7.316212E-1,3.4927633E-1,6.191677E-1,4.020453E-1,6.165051E-1,1.5466081E-2,3.8582292E-1,4.6466953E-1,2.923776E-1,3.4289467E-1,3.885239E-1,3.2057264E-1,8.512497E-1,6.706236E-3,-5.0615063E-3,5.3080463E-1,7.773939E-1,-4.750157E-3,3.2818973E-1,6.364224E-1,1.4090207E-2,7.045989E-1,4.0035573E-1,5.770299E-1,1.8015084E-1,-3.463961E-3,5.2560216E-1,8.768511E-1,9.972521E-3,1.1096063E-2,-2.7451671E-3,-1.7745101E-3,2.1354042E-3,9.414285E-4,7.404202E-3,-5.70128E-3,6.7511294E-3,9.050931E-3,-1.6584711E-3,5.1035E-3,-3.1151138E-3,-3.3744539E-3,5.5365765E-4,3.7644333E-3,1.22056315E-2,7.0766704E-3,2.0338525E-3,1.0985434E-2,6.8374036E-4,-2.5847144E-3,6.1499886E-4],"split_indices":[661,22,403,860,85,608,254,641,832,54,448,128,661,84,702,0,0,55,30,0,307,862,641,0,725,224,247,0,24,415,0,0,0,0,0,0,0,0,0,0,0,0,0,0,0,0,0,0,0,0,0,0,0],"split_type":[0,0,0,0,0,0,0,0,0,0,0,0,0,0,0,0,0,0,0,0,0,0,0,0,0,0,0,0,0,0,0,0,0,0,0,0,0,0,0,0,0,0,0,0,0,0,0,0,0,0,0,0,0],"sum_hessian":[2.1081787E3,4.5753564E2,1.650643E3,2.6349347E2,1.9404216E2,1.4276709E3,2.2297214E2,5.5187885E1,2.083056E2,7.254964E1,1.21492516E2,3.707786E2,1.0568922E3,2.4482433E1,1.984897E2,4.4570527E0,5.073083E1,1.06870365E1,1.9761856E2,8.9035015E0,6.3646137E1,2.581517E1,9.5677345E1,7.525002E1,2.9552856E2,4.1418007E1,1.01547424E3,5.783491E0,1.8698942E1,1.9447765E2,4.012055E0,8.017772E0,2.6692648E0,1.5531854E2,4.230002E1,1.6462948E1,4.718319E1,3.1140718E0,2.2701097E1,4.897584E0,9.077976E1,6.546141E1,9.788608E0,5.8724133E1,2.3680443E2,2.9840773E1,1.1577235E1,3.3839645E1,9.8163464E2,1.0239883E1,8.459058E0,1.059166E2,8.8561035E1],"tree_param":{"num_deleted":"0","num_feature":"896","num_nodes":"53","size_leaf_vector":"1"}},{"base_weights":[-8.080991E-2,2.0501946E-1,-9.133997E-2,5.720056E-3,6.231446E-1,-7.355568E-2,-2.4828358E-1,-5.958324E-3,1.6440462E-1,-7.821312E-4,9.421786E-3,2.9470125E-1,-8.064889E-2,-3.216049E-1,1.5346684E-1,3.3315775E-1,-4.6042856E-3,-1.2287078E-1,7.2701585E-1,-6.8113804E-2,-3.1159264E-1,3.4150627E-1,-3.6233556E-1,4.9425742E-1,-5.1432345E-3,-4.9303663E-3,5.215878E-3,3.3982217E-3,-5.739715E-3,1.0210746E-2,-2.0045291E-3,-7.1825954E-4,1.0468254E-2,-7.7683537E-4,-5.282994E-3,8.397534E-3,-4.002314E-3,-2.0531353E-3,-5.1668156E-3,9.47464E-3,1.5767788E-5],"categories":[],"categories_nodes":[],"categories_segments":[],"categories_sizes":[],"default_left":[0,0,0,0,0,0,0,0,0,0,0,0,0,0,0,0,0,0,0,0,0,0,0,0,0,0,0,0,0,0,0,0,0,0,0,0,0,0,0,0,0],"id":11,"left_children":[1,3,5,7,9,11,13,-1,15,-1,-1,17,19,21,23,25,-1,27,29,31,33,35,37,39,-1,-1,-1,-1,-1,-1,-1,-1,-1,-1,-1,-1,-1,-1,-1,-1,-1],"loss_changes":[6.4428825E0,6.3419123E0,5.7294216E0,5.100004E0,5.515295E0,4.859046E0,6.211054E0,0E0,4.6082287E0,0E0,0E0,6.4430003E0,5.2385025E0,4.910164E0,7.735371E0,5.4762373E0,0E0,4.083161E0,4.901061E0,6.7353153E0,4.653592E0,4.2849417E0,3.92523E0,4.9465237E0,0E0,0E0,0E0,0E0,0E0,0E0,0E0,0E0,0E0,0E0,0E0,0E0,0E0,0E0,0E0,0E0,0E0],"parents":[2147483647,0,0,1,1,2,2,3,3,4,4,5,5,6,6,8,8,11,11,12,12,13,13,14,14,15,15,17,17,18,18,19,19,20,20,21,21,22,22,23,23],"right_children":[2,4,6,8,10,12,14,-1,16,-1,-1,18,20,22,24,26,-1,28,30,32,34,36,38,40,-1,-1,-1,-1,-1,-1,-1,-1,-1,-1,-1,-1,-1,-1,-1,-1,-1],"split_conditions":[2.058879E-1,5.323478E-1,2.8119943E-1,4.2349864E-2,3.3744052E-1,1.0284508E-1,6.4522475E-1,-5.958324E-3,1.543913E-1,-7.821312E-4,9.421786E-3,4.4077885E-1,9.9641484E-1,1.7204132E-2,5.355012E-1,3.0505723E-1,-4.6042856E-3,5.0417966E-1,7.4059165E-1,9.9548763E-1,4.6740842E-1,5.6858766E-1,4.784536E-1,4.7158456E-1,-5.1432345E-3,-4.9303663E-3,5.215878E-3,3.3982217E-3,-5.739715E-3,1.0210746E-2,-2.0045291E-3,-7.1825954E-4,1.0468254E-2,-7.7683537E-4,-5.282994E-3,8.397534E-3,-4.002314E-3,-2.0531353E-3,-5.1668156E-3,9.47464E-3,1.5767788E-5],"split_indices":[856,288,865,801,147,28,61,0,129,0,0,120,315,225,444,179,0,320,862,202,310,544,86,597,0,0,0,0,0,0,0,0,0,0,0,0,0,0,0,0,0],"split_type":[0,0,0,0,0,0,0,0,0,0,0,0,0,0,0,0,0,0,0,0,0,0,0,0,0,0,0,0,0,0,0,0,0,0,0,0,0,0,0,0,0],"sum_hessian":[2.1334136E3,7.514684E1,2.0582666E3,5.1576553E1,2.3570288E1,1.8500897E3,2.0817691E2,1.0219648E1,4.1356903E1,7.555687E0,1.60146E1,3.4196014E1,1.8158937E3,1.7621614E2,3.1960773E1,3.2911938E1,8.444964E0,1.7758698E1,1.6437317E1,1.7236338E3,9.225989E1,9.77013E0,1.6644601E2,2.131393E1,1.0646842E1,5.77506E0,2.7136879E1,8.880116E0,8.878581E0,1.24381485E1,3.9991689E0,1.7191948E3,4.438944E0,4.4808327E1,4.745156E1,5.7751174E0,3.9950132E0,8.301653E1,8.342948E1,1.0659579E1,1.0654351E1],"tree_param":{"num_deleted":"0","num_feature":"896","num_nodes":"41","size_leaf_vector":"1"}},{"base_weights":[-5.9775885E-2,-6.7012504E-2,3.5747617E-1,-7.773752E-2,1.4298767E-1,-6.1479933E-3,5.1028705E-1,-7.1072824E-2,-4.8160264E-3,4.9844697E-1,-5.9886616E-2,1.0250489E-2,1.144285E-1,-7.962519E-2,1.925402E-1,8.192712E-1,1.0193318E-4,2.5338045E-1,-2.7690116E-1,4.1328052E-1,-4.9718907E-3,-8.514611E-4,4.0872786E-3,5.868902E-3,-1.0054485E-3,1.3574918E-2,3.4884864E-3,-4.852116E-3,7.915028E-3,6.020649E-3,-2.1255559E-3,-4.2517553E-3,3.9230012E-3,-4.0309615E-3,8.023425E-3],"categories":[],"categories_nodes":[],"categories_segments":[],"categories_sizes":[],"default_left":[0,0,0,0,0,0,0,0,0,0,0,0,0,0,0,0,0,0,0,0,0,0,0,0,0,0,0,0,0,0,0,0,0,0,0],"id":12,"left_children":[1,3,5,7,9,-1,11,13,-1,15,17,-1,19,21,23,25,27,29,31,33,-1,-1,-1,-1,-1,-1,-1,-1,-1,-1,-1,-1,-1,-1,-1],"loss_changes":[6.4955716E0,4.7579308E0,5.7533965E0,5.3435497E0,7.4401994E0,0E0,6.411232E0,4.4664335E0,0E0,5.986763E0,4.578409E0,0E0,3.7236717E0,4.915745E0,7.2192564E0,5.2632046E0,6.358579E0,4.5886264E0,4.055442E0,4.5733423E0,0E0,0E0,0E0,0E0,0E0,0E0,0E0,0E0,0E0,0E0,0E0,0E0,0E0,0E0,0E0],"parents":[2147483647,0,0,1,1,2,2,3,3,4,4,6,6,7,7,9,9,10,10,12,12,13,13,14,14,15,15,16,16,17,17,18,18,19,19],"right_children":[2,4,6,8,10,-1,12,14,-1,16,18,-1,20,22,24,26,28,30,32,34,-1,-1,-1,-1,-1,-1,-1,-1,-1,-1,-1,-1,-1,-1,-1],"split_conditions":[9.9638915E-1,8.3145744E-1,4.1947877E-1,8.0473185E-1,5.9081778E-2,-6.1479933E-3,5.002042E-1,8.6639076E-1,-4.8160264E-3,5.7960063E-1,4.75929E-1,1.0250489E-2,1.3176689E-1,9.4998336E-1,4.1049224E-1,4.789829E-1,5.5745643E-1,7.312777E-1,6.6253823E-1,8.55697E-2,-4.9718907E-3,-8.514611E-4,4.0872786E-3,5.868902E-3,-1.0054485E-3,1.3574918E-2,3.4884864E-3,-4.852116E-3,7.915028E-3,6.020649E-3,-2.1255559E-3,-4.2517553E-3,3.9230012E-3,-4.0309615E-3,8.023425E-3],"split_indices":[752,576,511,576,673,0,192,412,0,669,256,0,801,703,55,736,278,318,309,481,0,0,0,0,0,0,0,0,0,0,0,0,0,0,0],"split_type":[0,0,0,0,0,0,0,0,0,0,0,0,0,0,0,0,0,0,0,0,0,0,0,0,0,0,0,0,0,0,0,0,0,0,0],"sum_hessian":[2.1422788E3,2.1065828E3,3.569616E1,2.0048234E3,1.0175945E2,4.447521E0,3.1248636E1,1.973307E3,3.1516266E1,3.6445602E1,6.531385E1,1.2945137E1,1.83035E1,1.9119751E3,6.1331997E1,2.1780064E1,1.4665539E1,2.666072E1,3.865313E1,1.2501129E1,5.8023705E0,1.8924409E3,1.953418E1,2.5779154E1,3.555284E1,9.339942E0,1.2440123E1,9.330595E0,5.3349447E0,1.5110481E1,1.1550239E1,3.1985258E1,6.667874E0,4.0078125E0,8.493317E0],"tree_param":{"num_deleted":"0","num_feature":"896","num_nodes":"35","size_leaf_vector":"1"}},{"base_weights":[1.3414204E-1,1.19638644E-1,4.1345587E-1,1.4260739E-1,-5.062444E-2,5.510429E-1,-4.4091396E-2,-5.278867E-3,1.4881639E-1,6.178234E-1,-9.966484E-2,9.025715E-1,2.7524325E-1,-4.9223322E-3,5.0933072E-3,-1.0463258E-1,1.6370496E-1,-1.155992E-3,9.374064E-3,4.9708128E-2,-2.7363077E-1,-3.8170507E-5,1.0204711E0,-3.3078939E-3,4.5553857E-1,6.936973E-3,-1.7493978E-3,1.8769607E-3,-1.1746911E-4,-1.9650448E-4,9.727629E-3,1.5887438E-3,-3.9117187E-3,-2.751434E-3,1.1566129E-2,6.5357325E-4,8.522171E-3],"categories":[],"categories_nodes":[],"categories_segments":[],"categories_sizes":[],"default_left":[0,0,0,0,0,0,0,0,0,0,0,0,0,0,0,0,0,0,0,0,0,0,0,0,0,0,0,0,0,0,0,0,0,0,0,0,0],"id":13,"left_children":[1,3,5,7,9,11,13,-1,15,17,19,21,23,-1,-1,25,27,-1,-1,29,31,-1,33,-1,35,-1,-1,-1,-1,-1,-1,-1,-1,-1,-1,-1,-1],"loss_changes":[8.554474E0,7.9087467E0,6.5986195E0,7.4716873E0,7.958641E0,7.5429363E0,6.4251323E0,0E0,6.677223E0,3.9598713E0,5.868188E0,3.7325306E0,5.218687E0,0E0,0E0,5.5901003E0,6.8378334E0,0E0,0E0,7.7992244E0,5.2961E0,0E0,5.606247E0,0E0,5.5140805E0,0E0,0E0,0E0,0E0,0E0,0E0,0E0,0E0,0E0,0E0,0E0,0E0],"parents":[2147483647,0,0,1,1,2,2,3,3,4,4,5,5,6,6,8,8,9,9,10,10,11,11,12,12,15,15,16,16,19,19,20,20,22,22,24,24],"right_children":[2,4,6,8,10,12,14,-1,16,18,20,22,24,-1,-1,26,28,-1,-1,30,32,-1,34,-1,36,-1,-1,-1,-1,-1,-1,-1,-1,-1,-1,-1,-1],"split_conditions":[7.216694E-1,7.316212E-1,8.1948936E-1,3.939611E-3,5.956889E-1,4.48289E-1,5.644482E-1,-5.278867E-3,5.9331167E-1,4.0539894E-1,5.2442646E-1,3.1243272E-2,7.11229E-1,-4.9223322E-3,5.0933072E-3,6.0525763E-1,2.5827518E-1,-1.155992E-3,9.374064E-3,3.5510498E-1,3.5089812E-1,-3.8170507E-5,2.0287302E-1,-3.3078939E-3,4.8296684E-1,6.936973E-3,-1.7493978E-3,1.8769607E-3,-1.1746911E-4,-1.9650448E-4,9.727629E-3,1.5887438E-3,-3.9117187E-3,-2.751434E-3,1.1566129E-2,6.5357325E-4,8.522171E-3],"split_indices":[246,403,311,449,478,704,256,0,254,223,64,481,211,0,0,798,449,0,0,513,416,0,416,0,540,0,0,0,0,0,0,0,0,0,0,0,0],"split_type":[0,0,0,0,0,0,0,0,0,0,0,0,0,0,0,0,0,0,0,0,0,0,0,0,0,0,0,0,0,0,0,0,0,0,0,0,0],"sum_hessian":[2.1229058E3,2.0194728E3,1.0343294E2,1.7795686E3,2.3990413E2,7.936353E1,2.4069405E1,1.5600101E1,1.7639685E3,1.560473E1,2.242994E2,3.3892406E1,4.547113E1,1.3364494E1,1.070491E1,9.7538414E1,1.6664302E3,4.897375E0,1.0707355E1,1.2106403E2,1.0323536E2,4.0125904E0,2.9879818E1,1.0250227E1,3.52209E1,7.137694E0,9.040072E1,1.4704525E3,1.9597768E2,1.1349305E2,7.570989E0,2.1813547E1,8.1421814E1,2.671103E0,2.7208714E1,1.82735E1,1.6947401E1],"tree_param":{"num_deleted":"0","num_feature":"896","num_nodes":"37","size_leaf_vector":"1"}},{"base_weights":[-6.899699E-2,-4.1274186E-2,-1.7666821E-1,3.7890598E-1,-4.939484E-2,5.054259E-1,-1.9680642E-1,6.2842254E-4,8.386148E-3,4.7713006E-1,-5.6213968E-2,-2.4469134E-3,9.488985E-3,5.5792737E-1,-2.1294191E-1,-5.0533884E-3,6.990974E-3,-2.2239888E-3,9.2420214E-1,6.544024E-1,-6.1150845E-2,-1.9844295E-3,1.2049867E-2,-4.065899E-3,-1.441482E-1,1.2516524E-2,-7.9662446E-4,-3.238728E-3,1.0718977E-2,-4.846674E-4,-3.2456787E-3,1.2125595E-3,-2.2352594E-3],"categories":[],"categories_nodes":[],"categories_segments":[],"categories_sizes":[],"default_left":[0,0,0,0,0,0,0,0,0,0,0,0,0,0,0,0,0,0,0,0,0,0,0,0,0,0,0,0,0,0,0,0,0],"id":14,"left_children":[1,3,5,7,9,11,13,15,-1,17,19,-1,-1,21,23,-1,-1,-1,25,27,29,-1,-1,-1,31,-1,-1,-1,-1,-1,-1,-1,-1],"loss_changes":[6.2340193E0,5.6968584E0,5.9761524E0,5.4730716E0,5.8915715E0,4.3712277E0,5.1882305E0,6.784448E0,0E0,6.762327E0,5.7003493E0,0E0,0E0,4.606305E0,5.3429394E0,0E0,0E0,0E0,4.3152637E0,4.882416E0,5.386664E0,0E0,0E0,0E0,6.3259726E0,0E0,0E0,0E0,0E0,0E0,0E0,0E0,0E0],"parents":[2147483647,0,0,1,1,2,2,3,3,4,4,5,5,6,6,7,7,9,9,10,10,13,13,14,14,18,18,19,19,20,20,24,24],"right_children":[2,4,6,8,10,12,14,16,-1,18,20,-1,-1,22,24,-1,-1,-1,26,28,30,-1,-1,-1,32,-1,-1,-1,-1,-1,-1,-1,-1],"split_conditions":[7.7165097E-1,1.0284508E-1,9.5941675E-1,5.3237045E-1,8.465036E-2,4.1406748E-1,2.7312044E-2,7.166787E-1,8.386148E-3,6.617315E-1,1.5247332E-2,-2.4469134E-3,9.488985E-3,7.773863E-1,3.7352297E-1,-5.0533884E-3,6.990974E-3,-2.2239888E-3,6.15293E-1,4.3307003E-1,9.346848E-1,-1.9844295E-3,1.2049867E-2,-4.065899E-3,4.4886655E-1,1.2516524E-2,-7.9662446E-4,-3.238728E-3,1.0718977E-2,-4.846674E-4,-3.2456787E-3,1.2125595E-3,-2.2352594E-3],"split_indices":[542,28,11,672,736,224,244,350,0,62,564,0,0,478,402,0,0,0,732,285,628,0,0,0,408,0,0,0,0,0,0,0,0],"split_type":[0,0,0,0,0,0,0,0,0,0,0,0,0,0,0,0,0,0,0,0,0,0,0,0,0,0,0,0,0,0,0,0,0],"sum_hessian":[2.0899277E3,1.6631017E3,4.268261E2,3.0666958E1,1.6324347E3,1.1549202E1,4.1527692E2,1.73254E1,1.3341559E1,1.9989857E1,1.6124448E3,4.4399657E0,7.109236E0,7.9895644E0,4.0728735E2,1.0207552E1,7.117847E0,7.995976E0,1.1993881E1,1.0217242E1,1.6022277E3,3.9914384E0,3.998126E0,1.0602304E2,3.012643E2,8.887663E0,3.1062186E0,3.1057584E0,7.1114836E0,1.528573E3,7.365462E1,6.881823E1,2.3244609E2],"tree_param":{"num_deleted":"0","num_feature":"896","num_nodes":"33","size_leaf_vector":"1"}},{"base_weights":[-6.355365E-2,-7.244455E-2,4.5441836E-1,-2.566029E-1,-5.8772903E-2,8.235823E-1,3.1103034E-2,6.66741E-2,-3.8741662E-3,-1.1684588E-1,-1.0542541E-2,-2.74201E-3,1.0211703E0,4.2177248E-1,-5.257752E-3,4.9307826E-1,-2.6053095E-1,-6.2323447E-2,-2.6904234E-1,-3.403579E-2,3.036764E-1,6.632787E-4,1.29079595E-2,1.0578523E-2,-2.8688023E-3,7.494823E-3,-5.687332E-3,-5.0276555E-3,5.7046995E-3,-2.225944E-3,2.5448372E-4,2.93259E-3,-3.1108924E-3,-4.2920324E-4,6.1830045E-3,1.3079856E-2,1.8392855E-3],"categories":[],"categories_nodes":[],"categories_segments":[],"categories_sizes":[],"default_left":[0,0,0,0,0,0,0,0,0,0,0,0,0,0,0,0,0,0,0,0,0,0,0,0,0,0,0,0,0,0,0,0,0,0,0,0,0],"id":15,"left_children":[1,3,5,7,9,11,13,15,-1,17,19,-1,21,23,-1,25,27,29,31,33,35,-1,-1,-1,-1,-1,-1,-1,-1,-1,-1,-1,-1,-1,-1,-1,-1],"loss_changes":[9.652361E0,5.1574287E0,5.5043187E0,5.9585915E0,5.358923E0,4.3672457E0,4.0214458E0,5.9021945E0,0E0,7.1874437E0,7.736104E0,0E0,4.019268E0,5.1540728E0,0E0,5.352355E0,5.0857944E0,8.965653E0,5.3559914E0,5.567567E0,8.535551E0,0E0,0E0,0E0,0E0,0E0,0E0,0E0,0E0,0E0,0E0,0E0,0E0,0E0,0E0,0E0,0E0],"parents":[2147483647,0,0,1,1,2,2,3,3,4,4,5,5,6,6,7,7,9,9,10,10,12,12,13,13,15,15,16,16,17,17,18,18,19,19,20,20],"right_children":[2,4,6,8,10,12,14,16,-1,18,20,-1,22,24,-1,26,28,30,32,34,36,-1,-1,-1,-1,-1,-1,-1,-1,-1,-1,-1,-1,-1,-1,-1,-1],"split_conditions":[9.3586797E-1,1.9551156E-2,5.3471017E-1,5.3079247E-2,8.406522E-2,6.364224E-1,1.02118865E-1,4.6925005E-1,-3.8741662E-3,6.2381274E-1,8.9718235E-1,-2.74201E-3,3.573446E-2,9.2048064E-2,-5.257752E-3,5.7719207E-1,4.166134E-2,1.007221E-1,6.068197E-1,9.8144454E-1,2.4180901E-1,6.632787E-4,1.29079595E-2,1.0578523E-2,-2.8688023E-3,7.494823E-3,-5.687332E-3,-5.0276555E-3,5.7046995E-3,-2.225944E-3,2.5448372E-4,2.93259E-3,-3.1108924E-3,-4.2920324E-4,6.1830045E-3,1.3079856E-2,1.8392855E-3],"split_indices":[871,257,288,545,321,766,609,512,0,348,308,0,481,481,0,759,545,353,574,52,608,0,0,0,0,0,0,0,0,0,0,0,0,0,0,0,0],"split_type":[0,0,0,0,0,0,0,0,0,0,0,0,0,0,0,0,0,0,0,0,0,0,0,0,0,0,0,0,0,0,0,0,0,0,0,0,0],"sum_hessian":[2.0878052E3,2.0534187E3,3.438643E1,1.4067984E2,1.9127389E3,1.7862972E1,1.6523455E1,4.0382355E1,1.0029748E2,8.6717377E2,1.0455651E3,2.668131E0,1.519484E1,9.839401E0,6.684054E0,1.7313267E1,2.3069088E1,6.3949304E2,2.2768074E2,9.736591E2,7.190602E1,3.575446E0,1.1619395E1,4.9368052E0,4.902596E0,1.4205344E1,3.1079226E0,1.8187498E1,4.881591E0,2.2627971E2,4.1321335E2,1.5087299E1,2.1259343E2,9.6166455E2,1.1994573E1,6.6685123E0,6.523751E1],"tree_param":{"num_deleted":"0","num_feature":"896","num_nodes":"37","size_leaf_vector":"1"}},{"base_weights":[1.1805792E-1,-8.698095E-2,1.3205883E-1,6.340143E-1,-1.4298743E-1,1.0555424E-1,2.659609E-1,-3.2781344E-3,1.1265761E-2,-2.1519935E-1,3.7850934E-1,1.2659699E-1,-8.8966966E-2,1.1223701E-2,2.3205824E-1,-2.5619227E-1,5.628409E-3,-9.974114E-2,1.1025901E-2,1.6258232E-1,-8.147115E-3,-1.5211229E-1,5.058768E-1,2.7880836E-1,-1.7853858E-1,-3.061319E-3,4.58575E-3,-6.3477773E-3,5.9617036E-3,1.3774565E-3,3.8811127E-3,4.5551194E-4,-5.0260695E-3,-4.86259E-4,-5.14686E-3,7.950573E-3,-3.6878602E-3,1.763765E-3,4.455729E-3,-3.4329235E-3,7.931682E-3],"categories":[],"categories_nodes":[],"categories_segments":[],"categories_sizes":[],"default_left":[0,0,0,0,0,0,0,0,0,0,0,0,0,0,0,0,0,0,0,0,0,0,0,0,0,0,0,0,0,0,0,0,0,0,0,0,0,0,0,0,0],"id":16,"left_children":[1,3,5,7,9,11,13,-1,-1,15,17,19,21,-1,23,25,-1,27,-1,29,31,33,35,37,39,-1,-1,-1,-1,-1,-1,-1,-1,-1,-1,-1,-1,-1,-1,-1,-1],"loss_changes":[6.049736E0,5.544034E0,6.961136E0,5.0250545E0,4.8313565E0,6.747101E0,9.128307E0,0E0,0E0,3.6891184E0,5.5202904E0,7.203596E0,6.1328335E0,0E0,6.06921E0,3.8569202E0,0E0,4.205511E0,0E0,6.5959663E0,8.309418E0,5.455551E0,4.2216597E0,4.722355E0,5.4497933E0,0E0,0E0,0E0,0E0,0E0,0E0,0E0,0E0,0E0,0E0,0E0,0E0,0E0,0E0,0E0,0E0],"parents":[2147483647,0,0,1,1,2,2,3,3,4,4,5,5,6,6,9,9,10,10,11,11,12,12,14,14,15,15,17,17,19,19,20,20,21,21,22,22,23,23,24,24],"right_children":[2,4,6,8,10,12,14,-1,-1,16,18,20,22,-1,24,26,-1,28,-1,30,32,34,36,38,40,-1,-1,-1,-1,-1,-1,-1,-1,-1,-1,-1,-1,-1,-1,-1,-1],"split_conditions":[9.5793925E-2,1.4090207E-2,6.8903977E-1,3.8048465E-2,7.2719854E-1,8.7297577E-1,2.5471985E-1,-3.2781344E-3,1.1265761E-2,7.836465E-1,1.14870586E-1,7.761924E-1,2.6829764E-1,1.1223701E-2,3.069847E-1,3.9976203E-1,5.628409E-3,4.846695E-1,1.1025901E-2,7.4558586E-1,8.4554535E-1,7.992007E-1,7.575592E-1,5.761874E-1,2.0763981E-1,-3.061319E-3,4.58575E-3,-6.3477773E-3,5.9617036E-3,1.3774565E-3,3.8811127E-3,4.5551194E-4,-5.0260695E-3,-4.86259E-4,-5.14686E-3,7.950573E-3,-3.6878602E-3,1.763765E-3,4.455729E-3,-3.4329235E-3,7.931682E-3],"split_indices":[724,641,192,737,416,404,213,0,0,352,865,820,865,0,737,65,0,480,0,320,616,116,862,541,289,0,0,0,0,0,0,0,0,0,0,0,0,0,0,0,0],"split_type":[0,0,0,0,0,0,0,0,0,0,0,0,0,0,0,0,0,0,0,0,0,0,0,0,0,0,0,0,0,0,0,0,0,0,0,0,0,0,0,0,0],"sum_hessian":[2.1023853E3,1.3405011E2,1.9683352E3,8.918469E0,1.2513164E2,1.6445927E3,3.2374243E2,3.1193762E0,5.7990937E0,1.1042796E2,1.4703674E1,1.4843673E3,1.6022539E2,1.1156056E1,3.125864E2,1.0552474E2,4.9032216E0,9.355031E0,5.3486433E0,1.171338E3,3.1302924E2,1.4552188E2,1.4703516E1,2.8092188E2,3.1664505E1,9.928613E1,6.23861E0,5.3412757E0,4.0137553E0,1.0540653E3,1.1727281E2,2.8316794E2,2.9861305E1,1.1393312E2,3.1588757E1,1.1141167E1,3.562349E0,1.7433455E2,1.0658733E2,2.764405E1,4.020455E0],"tree_param":{"num_deleted":"0","num_feature":"896","num_nodes":"41","size_leaf_vector":"1"}},{"base_weights":[-7.737013E-2,4.794315E-2,-1.0401235E-1,-4.9978547E-2,1.7636693E-1,-8.1847675E-2,-2.516894E-1,-2.567719E-1,8.3989084E-2,2.513409E-1,-3.3132756E-1,3.4717342E-1,-9.12739E-2,1.2883025E-1,-3.310767E-1,-3.3432558E-1,6.022905E-3,-2.720469E-2,3.9384076E-1,-5.3556194E-3,2.9748416E-1,-6.9482084E-3,2.7434784E-1,-4.527272E-3,5.0415707E-1,-1.1318925E-1,7.533784E-2,3.496019E-1,-5.7331463E-3,2.4391678E-1,-3.750236E-1,-6.4841867E-3,-1.6387537E-3,4.0249065E-3,-1.5708389E-3,6.516457E-3,-2.1598602E-3,2.9655482E-4,4.35794E-3,8.600126E-3,-5.676884E-3,-2.617418E-3,7.6165213E-3,-1.2127965E-3,3.8531038E-3,3.80159E-3,-5.308455E-4,5.6448816E-3,-4.90656E-3,7.897938E-3,-3.6796168E-3,-4.562566E-3,-5.276047E-4],"categories":[],"categories_nodes":[],"categories_segments":[],"categories_sizes":[],"default_left":[0,0,0,0,0,0,0,0,0,0,0,0,0,0,0,0,0,0,0,0,0,0,0,0,0,0,0,0,0,0,0,0,0,0,0,0,0,0,0,0,0,0,0,0,0,0,0,0,0,0,0,0,0],"id":17,"left_children":[1,3,5,7,9,11,13,15,17,19,21,23,25,27,29,31,-1,33,35,-1,37,-1,39,-1,41,43,45,47,-1,49,51,-1,-1,-1,-1,-1,-1,-1,-1,-1,-1,-1,-1,-1,-1,-1,-1,-1,-1,-1,-1,-1,-1],"loss_changes":[7.005739E0,4.64076E0,5.6406403E0,5.83276E0,6.157076E0,6.119341E0,6.846492E0,5.6985636E0,4.422487E0,5.216487E0,4.7761536E0,4.3098903E0,5.3897667E0,6.321455E0,4.807501E0,3.974597E0,0E0,5.3364024E0,5.4158077E0,0E0,4.845978E0,0E0,4.670478E0,0E0,5.5997887E0,5.027727E0,6.7130337E0,5.7643642E0,0E0,4.885913E0,4.4431667E0,0E0,0E0,0E0,0E0,0E0,0E0,0E0,0E0,0E0,0E0,0E0,0E0,0E0,0E0,0E0,0E0,0E0,0E0,0E0,0E0,0E0,0E0],"parents":[2147483647,0,0,1,1,2,2,3,3,4,4,5,5,6,6,7,7,8,8,9,9,10,10,11,11,12,12,13,13,14,14,15,15,17,17,18,18,20,20,22,22,24,24,25,25,26,26,27,27,29,29,30,30],"right_children":[2,4,6,8,10,12,14,16,18,20,22,24,26,28,30,32,-1,34,36,-1,38,-1,40,-1,42,44,46,48,-1,50,52,-1,-1,-1,-1,-1,-1,-1,-1,-1,-1,-1,-1,-1,-1,-1,-1,-1,-1,-1,-1,-1,-1],"split_conditions":[3.4134668E-1,1.007221E-1,7.896815E-1,7.136965E-2,4.5362613E-1,1.08313836E-1,2.3384584E-1,8.106453E-1,5.914706E-1,5.890101E-1,5.157871E-1,2.2342367E-1,8.816666E-1,8.390895E-1,1.1357332E-1,5.796149E-2,6.022905E-3,3.103336E-1,6.017068E-1,-5.3556194E-3,9.7435343E-1,-6.9482084E-3,6.4638674E-1,-4.527272E-3,4.166134E-2,9.746737E-1,8.3304906E-1,1.706795E-1,-5.7331463E-3,4.8136324E-1,6.824094E-1,-6.4841867E-3,-1.6387537E-3,4.0249065E-3,-1.5708389E-3,6.516457E-3,-2.1598602E-3,2.9655482E-4,4.35794E-3,8.600126E-3,-5.676884E-3,-2.617418E-3,7.6165213E-3,-1.2127965E-3,3.8531038E-3,3.80159E-3,-5.308455E-4,5.6448816E-3,-4.90656E-3,7.897938E-3,-3.6796168E-3,-4.562566E-3,-5.276047E-4],"split_indices":[725,353,702,257,605,0,788,156,32,286,23,247,404,798,31,1,0,341,383,0,5,0,148,0,97,180,415,513,0,608,288,0,0,0,0,0,0,0,0,0,0,0,0,0,0,0,0,0,0,0,0,0,0],"split_type":[0,0,0,0,0,0,0,0,0,0,0,0,0,0,0,0,0,0,0,0,0,0,0,0,0,0,0,0,0,0,0,0,0,0,0,0,0,0,0,0,0,0,0,0,0,0,0,0,0,0,0,0,0],"sum_hessian":[2.0958982E3,3.673317E2,1.7285665E3,2.0876303E2,1.5856865E2,1.5043367E3,2.242298E2,8.171324E1,1.2704979E2,1.3860504E2,1.9963614E1,3.1571552E1,1.4727651E3,3.859815E1,1.8563165E2,7.549212E1,6.2211227E0,9.416854E1,3.2881245E1,7.1072016E0,1.3149783E2,1.241594E1,7.547673E0,4.879663E0,2.669189E1,1.3018468E3,1.7091835E2,2.9726768E1,8.87138E0,1.2857395E1,1.7277426E2,2.5744865E1,4.9747253E1,2.1354322E1,7.2814224E1,2.3113844E1,9.7674E0,4.4873047E1,8.6624794E1,4.444359E0,3.103314E0,6.66652E0,2.002537E1,1.2827661E3,1.9080746E1,5.018186E1,1.2073649E2,2.3967865E1,5.7589035E0,6.6511965E0,6.206199E0,1.3819447E2,3.457978E1],"tree_param":{"num_deleted":"0","num_feature":"896","num_nodes":"53","size_leaf_vector":"1"}},{"base_weights":[-5.8728285E-2,-6.301232E-2,7.8016156E-3,-5.6663238E-2,-5.4239365E-3,-8.578587E-2,4.4484124E-2,-1.04674466E-1,1.0369129E-1,-8.112599E-3,3.7043434E-1,9.121966E-3,-1.0901954E-3,6.4943434E-4,1.2056256E-2,4.6123235E-4,-3.8298646E-3,1.1678466E-2,2.1725383E-3],"categories":[],"categories_nodes":[],"categories_segments":[],"categories_sizes":[],"default_left":[0,0,0,0,0,0,0,0,0,0,0,0,0,0,0,0,0,0,0],"id":18,"left_children":[1,3,-1,5,-1,7,9,11,13,15,17,-1,-1,-1,-1,-1,-1,-1,-1],"loss_changes":[7.6592684E0,6.380212E0,0E0,6.153223E0,0E0,5.8132334E0,8.015293E0,6.0567036E0,6.2308364E0,8.168577E0,7.6809845E0,0E0,0E0,0E0,0E0,0E0,0E0,0E0,0E0],"parents":[2147483647,0,0,1,1,3,3,5,5,6,6,7,7,8,8,9,9,10,10],"right_children":[2,4,-1,6,-1,8,10,12,14,16,18,-1,-1,-1,-1,-1,-1,-1,-1],"split_conditions":[9.9924093E-1,9.192251E-1,7.8016156E-3,1.6856186E-1,-5.4239365E-3,7.732957E-1,7.11396E-1,5.2076105E-2,8.2787627E-1,8.246402E-1,1.5587853E-1,9.121966E-3,-1.0901954E-3,6.4943434E-4,1.2056256E-2,4.6123235E-4,-3.8298646E-3,1.1678466E-2,2.1725383E-3],"split_indices":[845,732,0,801,0,0,412,220,344,255,20,0,0,0,0,0,0,0,0],"split_type":[0,0,0,0,0,0,0,0,0,0,0,0,0,0,0,0,0,0,0],"sum_hessian":[2.1231243E3,2.1132239E3,9.900408E0,2.0866033E3,2.6620743E1,1.6202485E3,4.663547E2,1.4737781E3,1.4647038E2,4.0239728E2,6.395743E1,4.880247E0,1.4688978E3,1.4247342E2,3.9969544E0,3.522785E2,5.011879E1,9.322795E0,5.4634636E1],"tree_param":{"num_deleted":"0","num_feature":"896","num_nodes":"19","size_leaf_vector":"1"}},{"base_weights":[1.3224688E-1,2.0935081E-1,8.596796E-2,1.9012956E-1,8.698461E-1,5.1930383E-2,2.57753E-1,5.207161E-1,1.5567032E-1,-1.5000683E-3,1.07859345E-2,5.0689584E-1,3.739627E-2,-3.099204E-1,3.0593207E-1,2.569124E-1,9.097342E-1,3.9070287E-1,1.0286703E-1,8.3931285E-1,-2.3977156E-1,-2.7462196E-1,6.661185E-2,5.9579583E-3,-6.24951E-3,5.909744E-2,4.4147024E-1,4.195829E-5,8.943627E-3,1.18037965E-2,1.4907767E-3,5.1030708E-3,-1.8468524E-3,-5.5131495E-5,2.1201763E-3,1.0542733E-2,-6.285652E-4,-6.5504834E-3,5.0827744E-3,7.2671496E-3,-3.2447837E-3,7.9938874E-4,-3.3798902E-3,-5.689467E-3,2.1739618E-3,7.220958E-3,2.5583147E-3],"categories":[],"categories_nodes":[],"categories_segments":[],"categories_sizes":[],"default_left":[0,0,0,0,0,0,0,0,0,0,0,0,0,0,0,0,0,0,0,0,0,0,0,0,0,0,0,0,0,0,0,0,0,0,0,0,0,0,0,0,0,0,0,0,0,0,0],"id":19,"left_children":[1,3,5,7,9,11,13,15,17,-1,-1,19,21,23,25,27,29,31,33,35,37,39,41,-1,-1,43,45,-1,-1,-1,-1,-1,-1,-1,-1,-1,-1,-1,-1,-1,-1,-1,-1,-1,-1,-1,-1],"loss_changes":[7.4877396E0,9.842205E0,7.682516E0,8.65943E0,4.7644844E0,7.2533054E0,6.0409374E0,7.155342E0,8.600779E0,0E0,0E0,8.631659E0,9.743075E0,5.321002E0,6.6952496E0,7.0998993E0,5.652582E0,8.726381E0,6.6984243E0,4.591097E0,3.7967377E0,4.694783E0,5.1723905E0,0E0,0E0,7.263495E0,6.5377216E0,0E0,0E0,0E0,0E0,0E0,0E0,0E0,0E0,0E0,0E0,0E0,0E0,0E0,0E0,0E0,0E0,0E0,0E0,0E0,0E0],"parents":[2147483647,0,0,1,1,2,2,3,3,4,4,5,5,6,6,7,7,8,8,11,11,12,12,13,13,14,14,15,15,16,16,17,17,18,18,19,19,20,20,21,21,22,22,25,25,26,26],"right_children":[2,4,6,8,10,12,14,16,18,-1,-1,20,22,24,26,28,30,32,34,36,38,40,42,-1,-1,44,46,-1,-1,-1,-1,-1,-1,-1,-1,-1,-1,-1,-1,-1,-1,-1,-1,-1,-1,-1,-1],"split_conditions":[4.461717E-1,9.346848E-1,7.795218E-1,2.8142643E-1,2.6571998E-1,2.1626121E-1,2.1380587E-2,2.1650557E-1,6.4241415E-1,-1.5000683E-3,1.07859345E-2,7.566998E-1,3.209651E-1,2.2280332E-1,4.2088345E-1,1.8392953E-1,6.297652E-1,2.2646844E-1,5.1019424E-1,1.9796512E-1,1.0071316E-1,9.727649E-3,7.566921E-1,5.9579583E-3,-6.24951E-3,3.5166335E-1,3.5773876E-1,4.195829E-5,8.943627E-3,1.18037965E-2,1.4907767E-3,5.1030708E-3,-1.8468524E-3,-5.5131495E-5,2.1201763E-3,1.0542733E-2,-6.285652E-4,-6.5504834E-3,5.0827744E-3,7.2671496E-3,-3.2447837E-3,7.9938874E-4,-3.3798902E-3,-5.689467E-3,2.1739618E-3,7.220958E-3,2.5583147E-3],"split_indices":[156,244,318,374,540,658,833,479,670,0,0,670,243,95,408,319,725,513,640,801,609,513,413,0,0,800,671,0,0,0,0,0,0,0,0,0,0,0,0,0,0,0,0,0,0,0,0],"split_type":[0,0,0,0,0,0,0,0,0,0,0,0,0,0,0,0,0,0,0,0,0,0,0,0,0,0,0,0,0,0,0,0,0,0,0,0,0,0,0,0,0,0,0,0,0,0,0],"sum_hessian":[2.102456E3,7.8727563E2,1.3151803E3,7.662642E2,2.1011406E1,1.0987715E3,2.164088E2,7.1001045E1,6.952632E2,3.5660985E0,1.7445309E1,3.2965546E1,1.0658059E3,1.6504969E1,1.9990382E2,4.329914E1,2.7701902E1,1.2637161E2,5.6889154E2,2.2724499E1,1.0241047E1,9.053245E1,9.752735E2,4.0146E0,1.2490369E1,7.136813E1,1.2853569E2,3.168501E1,1.1614131E1,2.0109064E1,7.5928392E0,1.04954926E2,2.1416683E1,2.8503577E2,2.838558E2,1.827477E1,4.449729E0,6.67289E0,3.5681562E0,3.5706003E0,8.696185E1,9.454666E2,2.9806877E1,1.3826859E1,5.754128E1,5.043154E1,7.810415E1],"tree_param":{"num_deleted":"0","num_feature":"896","num_nodes":"47","size_leaf_vector":"1"}},{"base_weights":[-6.90354E-2,-4.8111226E-2,-2.3665643E-1,2.6270366E-1,-6.195841E-2,-3.220098E-1,7.572377E-2,3.3249456E-2,6.174728E-1,-9.462431E-2,5.215187E-2,-3.4704402E-1,7.3637236E-3,5.877621E-1,-9.021348E-2,1.1276143E-2,-6.465914E-2,-2.832834E-3,7.9494494E-1,1.4818862E-1,-1.1499116E-1,1.3447551E-1,-1.692454E-1,2.0461096E-1,-4.0064812E-1,9.237348E-3,-3.2242606E-3,-2.152631E-3,8.05245E-3,-2.6895201E-3,5.0515956E-3,-3.2956252E-6,1.0000254E-2,-3.6716688E-4,5.6351363E-3,-1.4963376E-3,3.262249E-4,1.0558008E-3,8.013208E-3,5.60894E-3,-2.3353829E-3,1.0929199E-2,-4.4585584E-4,-4.265193E-3,6.566792E-3],"categories":[],"categories_nodes":[],"categories_segments":[],"categories_sizes":[],"default_left":[0,0,0,0,0,0,0,0,0,0,0,0,0,0,0,0,0,0,0,0,0,0,0,0,0,0,0,0,0,0,0,0,0,0,0,0,0,0,0,0,0,0,0,0,0],"id":20,"left_children":[1,3,5,7,9,11,13,15,17,19,21,23,-1,25,27,-1,29,-1,31,33,35,37,39,41,43,-1,-1,-1,-1,-1,-1,-1,-1,-1,-1,-1,-1,-1,-1,-1,-1,-1,-1,-1,-1],"loss_changes":[7.338641E0,8.040087E0,6.218402E0,6.467761E0,6.6607933E0,5.0829506E0,4.3576884E0,5.353933E0,5.2144537E0,6.883936E0,7.277545E0,5.3780155E0,0E0,4.089185E0,4.515974E0,0E0,5.488961E0,0E0,4.2305107E0,8.2638035E0,6.4606266E0,5.562707E0,5.141695E0,3.6890476E0,4.5000954E0,0E0,0E0,0E0,0E0,0E0,0E0,0E0,0E0,0E0,0E0,0E0,0E0,0E0,0E0,0E0,0E0,0E0,0E0,0E0,0E0],"parents":[2147483647,0,0,1,1,2,2,3,3,4,4,5,5,6,6,7,7,8,8,9,9,10,10,11,11,13,13,14,14,16,16,18,18,19,19,20,20,21,21,22,22,23,23,24,24],"right_children":[2,4,6,8,10,12,14,16,18,20,22,24,-1,26,28,-1,30,-1,32,34,36,38,40,42,44,-1,-1,-1,-1,-1,-1,-1,-1,-1,-1,-1,-1,-1,-1,-1,-1,-1,-1,-1,-1],"split_conditions":[2.8119943E-1,1.1006718E-1,6.610941E-1,1.1943236E-1,6.466025E-1,8.497953E-1,3.7536454E-1,1.9843747E-1,2.3769747E-1,1.045919E-1,6.1171556E-1,5.620379E-3,7.3637236E-3,5.9508216E-1,8.066016E-1,1.1276143E-2,7.5036573E-1,-2.832834E-3,1.888115E-1,4.6822086E-1,7.9129034E-1,9.346848E-1,3.5318634E-1,1.0959017E-1,9.178666E-1,9.237348E-3,-3.2242606E-3,-2.152631E-3,8.05245E-3,-2.6895201E-3,5.0515956E-3,-3.2956252E-6,1.0000254E-2,-3.6716688E-4,5.6351363E-3,-1.4963376E-3,3.262249E-4,1.0558008E-3,8.013208E-3,5.60894E-3,-2.3353829E-3,1.0929199E-2,-4.4585584E-4,-4.265193E-3,6.566792E-3],"split_indices":[865,671,288,353,864,51,883,640,380,276,28,833,0,92,62,0,158,0,595,882,20,340,598,404,480,0,0,0,0,0,0,0,0,0,0,0,0,0,0,0,0,0,0,0,0],"split_type":[0,0,0,0,0,0,0,0,0,0,0,0,0,0,0,0,0,0,0,0,0,0,0,0,0,0,0,0,0,0,0,0,0,0,0,0,0,0,0,0,0,0,0,0,0],"sum_hessian":[2.0946177E3,1.8633074E3,2.3131017E2,7.870553E1,1.7846019E3,1.8164693E2,4.966324E1,4.8458027E1,3.0247496E1,1.387561E3,3.970409E2,1.7809601E2,3.550925E0,1.1533093E1,3.8130142E1,3.1285965E0,4.5329433E1,4.885596E0,2.53619E1,1.0689431E2,1.2806667E3,2.89709E2,1.0733186E2,1.5523376E1,1.6257263E2,8.432437E0,3.1006565E0,3.4135803E1,3.9943404E0,3.3768208E1,1.1561224E1,5.3345795E0,2.002732E1,7.450716E1,3.238715E1,1.0399135E3,2.4075328E2,2.786007E2,1.110832E1,7.984644E0,9.934722E1,2.6688771E0,1.28545E1,1.5947278E2,3.099858E0],"tree_param":{"num_deleted":"0","num_feature":"896","num_nodes":"45","size_leaf_vector":"1"}},{"base_weights":[-4.894914E-2,-5.2585036E-2,8.255588E-3,-4.390545E-2,-3.1429318E-1,-4.9456533E-2,4.2218095E-1,5.456143E-3,-4.0653786E-3,-1.951032E-1,-3.172038E-2,-4.6698343E-2,9.890794E-3,7.670684E-5,-3.2827652E-3,4.526928E-3,-3.9880117E-4,8.947326E-3,-4.021077E-3],"categories":[],"categories_nodes":[],"categories_segments":[],"categories_sizes":[],"default_left":[0,0,0,0,0,0,0,0,0,0,0,0,0,0,0,0,0,0,0],"id":21,"left_children":[1,3,-1,5,7,9,11,-1,-1,13,15,17,-1,-1,-1,-1,-1,-1,-1],"loss_changes":[6.6207395E0,4.682414E0,0E0,5.201219E0,5.384353E0,5.1074324E0,6.301588E0,0E0,0E0,5.7522707E0,6.8638344E0,4.9683967E0,0E0,0E0,0E0,0E0,0E0,0E0,0E0],"parents":[2147483647,0,0,1,1,3,3,4,4,5,5,6,6,9,9,10,10,11,11],"right_children":[2,4,-1,6,8,10,12,-1,-1,14,16,18,-1,-1,-1,-1,-1,-1,-1],"split_conditions":[9.9924093E-1,8.0794716E-1,8.255588E-3,9.8144454E-1,3.490112E-1,9.6143824E-1,7.396249E-1,5.456143E-3,-4.0653786E-3,9.610823E-1,9.6140546E-1,4.3976262E-2,9.890794E-3,7.670684E-5,-3.2827652E-3,4.526928E-3,-3.9880117E-4,8.947326E-3,-4.021077E-3],"split_indices":[845,181,0,52,60,386,894,0,0,461,303,865,0,0,0,0,0,0,0],"split_type":[0,0,0,0,0,0,0,0,0,0,0,0,0,0,0,0,0,0,0],"sum_hessian":[2.0741125E3,2.0664338E3,7.678712E0,2.0012306E3,6.520331E1,1.9785598E3,2.2670729E1,5.7682734E0,5.943504E1,2.1369855E2,1.7648612E3,1.2876223E1,9.794506E0,8.467256E1,1.2902599E2,2.795623E1,1.736905E3,3.1112986E0,9.764924E0],"tree_param":{"num_deleted":"0","num_feature":"896","num_nodes":"19","size_leaf_vector":"1"}},{"base_weights":[1.3650703E-1,1.22025765E-1,3.943403E-1,1.4405856E-1,-8.4069006E-2,3.485718E-2,5.8997494E-1,1.1838016E-1,3.4591398E-1,-1.6223076E-1,2.7538714E-1,-4.2010373E-3,4.6737048E-1,2.444545E-1,8.424954E-1,2.1435116E-1,7.449483E-2,-5.449551E-2,4.281588E-1,4.84451E-1,-2.0190373E-1,4.50171E-1,-3.1410845E-3,-1.2848029E-1,1.0006005E-2,-1.9780388E-3,6.36944E-1,-3.2842914E-3,9.501519E-3,1.26672685E-2,2.0014206E-3,6.293999E-4,6.8645207E-3,-3.1851924E-3,5.046314E-3,6.597083E-3,2.7389873E-3,-5.7223444E-3,1.0950635E-2,2.853149E-3,-2.5928307E-3,-4.300307E-3,6.4224587E-3,6.4452067E-3,-5.2672853E-3,9.324901E-3,-3.6954312E-3],"categories":[],"categories_nodes":[],"categories_segments":[],"categories_sizes":[],"default_left":[0,0,0,0,0,0,0,0,0,0,0,0,0,0,0,0,0,0,0,0,0,0,0,0,0,0,0,0,0,0,0,0,0,0,0,0,0,0,0,0,0,0,0,0,0,0,0],"id":22,"left_children":[1,3,5,7,9,11,13,15,17,19,21,-1,23,25,27,29,31,33,35,37,39,41,-1,43,-1,-1,45,-1,-1,-1,-1,-1,-1,-1,-1,-1,-1,-1,-1,-1,-1,-1,-1,-1,-1,-1,-1],"loss_changes":[7.797283E0,9.052565E0,7.806242E0,9.283867E0,5.4648046E0,8.098447E0,6.0767384E0,6.7122364E0,6.6922054E0,4.17938E0,3.7229915E0,0E0,6.788419E0,5.6396456E0,5.3465767E0,7.5534E0,7.829841E0,5.348336E0,5.8036327E0,6.6984415E0,4.212769E0,4.825046E0,0E0,3.642865E0,0E0,0E0,5.363823E0,0E0,0E0,0E0,0E0,0E0,0E0,0E0,0E0,0E0,0E0,0E0,0E0,0E0,0E0,0E0,0E0,0E0,0E0,0E0,0E0],"parents":[2147483647,0,0,1,1,2,2,3,3,4,4,5,5,6,6,7,7,8,8,9,9,10,10,12,12,13,13,14,14,15,15,16,16,17,17,18,18,19,19,20,20,21,21,23,23,26,26],"right_children":[2,4,6,8,10,12,14,16,18,20,22,-1,24,26,28,30,32,34,36,38,40,42,-1,44,-1,-1,46,-1,-1,-1,-1,-1,-1,-1,-1,-1,-1,-1,-1,-1,-1,-1,-1,-1,-1,-1,-1],"split_conditions":[8.163279E-1,8.7297577E-1,5.5316813E-2,8.27702E-1,9.3860453E-1,5.05576E-1,4.8109543E-1,3.9363724E-1,3.619793E-1,5.83861E-1,8.05212E-1,-4.2010373E-3,4.7494808E-1,4.5860264E-1,1.864347E-1,1.9322783E-1,9.685521E-1,7.7290696E-1,6.183067E-1,4.7731686E-1,6.0521626E-1,2.5622468E-2,-3.1410845E-3,1.8858043E-2,1.0006005E-2,-1.9780388E-3,4.3246064E-1,-3.2842914E-3,9.501519E-3,1.26672685E-2,2.0014206E-3,6.293999E-4,6.8645207E-3,-3.1851924E-3,5.046314E-3,6.597083E-3,2.7389873E-3,-5.7223444E-3,1.0950635E-2,2.853149E-3,-2.5928307E-3,-4.300307E-3,6.4224587E-3,6.4452067E-3,-5.2672853E-3,9.324901E-3,-3.6954312E-3],"split_indices":[700,404,385,500,479,736,128,23,348,478,820,0,277,288,320,381,212,308,566,96,190,129,0,641,0,0,128,0,0,0,0,0,0,0,0,0,0,0,0,0,0,0,0,0,0,0,0],"split_type":[0,0,0,0,0,0,0,0,0,0,0,0,0,0,0,0,0,0,0,0,0,0,0,0,0,0,0,0,0,0,0,0,0,0,0,0,0,0,0,0,0,0,0,0,0,0,0],"sum_hessian":[2.1002107E3,1.9899196E3,1.1029106E2,1.798003E3,1.9191652E2,3.9284E1,7.1007065E1,1.5964963E3,2.0150674E2,1.5808951E2,3.382701E1,1.9190758E1,2.009324E1,3.081346E1,4.01936E1,4.997436E2,1.0967527E3,3.4394463E1,1.6711229E2,8.489931E0,1.4959958E2,2.6261734E1,7.5652766E0,9.814853E0,1.0278388E1,1.4733711E1,1.607975E1,3.1215973E0,3.7072002E1,5.817071E0,4.9392654E2,1.0770752E3,1.9677488E1,2.3662588E1,1.07318735E1,6.612601E1,1.00986275E2,3.1231294E0,5.3668013E0,1.51582155E1,1.3444136E2,4.4443355E0,2.18174E1,3.1230474E0,6.6918054E0,1.2514382E1,3.5653667E0],"tree_param":{"num_deleted":"0","num_feature":"896","num_nodes":"47","size_leaf_vector":"1"}},{"base_weights":[-6.484425E-2,8.137552E-2,-8.772324E-2,3.8620956E-2,5.866886E-1,-4.7106853E-1,-7.617328E-2,1.4664719E-1,-1.731719E-1,-1.892653E-1,1.160815E-2,2.4847023E-1,-5.65498E-3,-3.4627244E-2,-1.6342236E-1,-4.2693377E-3,1.9763547E-1,-3.4211984E-1,1.3688359E-1,6.5603107E-3,-6.454741E-3,-5.4528145E-3,8.962276E-3,-3.5826072E-1,-1.9633109E-2,-1.7338142E-1,1.0071587E-2,-6.515017E-4,3.1049314E-3,-4.369111E-3,5.699621E-3,4.0460736E-3,-6.6139684E-3,2.7598424E-3,-4.70299E-3,1.2127447E-3,-6.8174495E-4,-2.364478E-3,-1.5976743E-4],"categories":[],"categories_nodes":[],"categories_segments":[],"categories_sizes":[],"default_left":[0,0,0,0,0,0,0,0,0,0,0,0,0,0,0,0,0,0,0,0,0,0,0,0,0,0,0,0,0,0,0,0,0,0,0,0,0,0,0],"id":23,"left_children":[1,3,5,7,9,11,13,15,17,19,-1,21,-1,23,25,-1,27,29,31,-1,-1,-1,-1,33,35,37,-1,-1,-1,-1,-1,-1,-1,-1,-1,-1,-1,-1,-1],"loss_changes":[7.0795813E0,6.168228E0,8.06024E0,6.094615E0,1.0079905E1,3.6891012E0,6.4330206E0,5.2249036E0,4.7644873E0,4.3636026E0,0E0,3.9413543E0,0E0,5.838181E0,6.8316135E0,0E0,4.7909946E0,5.224681E0,7.1536503E0,0E0,0E0,0E0,0E0,3.8569865E0,7.8306785E0,5.5737495E0,0E0,0E0,0E0,0E0,0E0,0E0,0E0,0E0,0E0,0E0,0E0,0E0,0E0],"parents":[2147483647,0,0,1,1,2,2,3,3,4,4,5,5,6,6,7,7,8,8,9,9,11,11,13,13,14,14,16,16,17,17,18,18,23,23,24,24,25,25],"right_children":[2,4,6,8,10,12,14,16,18,20,-1,22,-1,24,26,-1,28,30,32,-1,-1,-1,-1,34,36,38,-1,-1,-1,-1,-1,-1,-1,-1,-1,-1,-1,-1,-1],"split_conditions":[6.2707317E-1,6.8226403E-1,5.934372E-1,5.4387856E-1,5.934372E-1,3.2577392E-1,7.5502557E-1,2.2333293E-1,6.238314E-1,4.499734E-1,1.160815E-2,1.0508616E-1,-5.65498E-3,2.3362474E-1,6.793318E-1,-4.2693377E-3,2.308972E-1,6.7671186E-1,8.7914205E-1,6.5603107E-3,-6.454741E-3,-5.4528145E-3,8.962276E-3,3.0018833E-1,4.0205228E-1,5.953442E-1,1.0071587E-2,-6.515017E-4,3.1049314E-3,-4.369111E-3,5.699621E-3,4.0460736E-3,-6.6139684E-3,2.7598424E-3,-4.70299E-3,1.2127447E-3,-6.8174495E-4,-2.364478E-3,-1.5976743E-4],"split_indices":[190,182,350,125,286,309,414,352,152,640,0,1,0,530,481,0,63,440,489,0,0,0,0,563,536,540,0,0,0,0,0,0,0,0,0,0,0,0,0],"split_type":[0,0,0,0,0,0,0,0,0,0,0,0,0,0,0,0,0,0,0,0,0,0,0,0,0,0,0,0,0,0,0,0,0,0,0,0,0,0,0],"sum_hessian":[2.1131047E3,2.8555627E2,1.8275486E3,2.6427258E2,2.1283688E1,5.228877E1,1.7752598E3,1.7521216E2,8.9060425E1,9.29912E0,1.1984567E1,5.7676916E0,4.6521076E1,1.2035522E3,5.717076E2,1.3735259E1,1.614769E2,5.7581234E1,3.1479193E1,3.1010656E0,6.198055E0,2.6589935E0,3.108698E0,5.2278538E1,1.1512737E3,5.677153E2,3.992318E0,4.835733E1,1.1311957E2,5.2698246E1,4.8829885E0,2.3956419E1,7.522774E0,7.543971E0,4.4734566E1,2.9420404E2,8.5706964E2,4.0644357E2,1.6127167E2],"tree_param":{"num_deleted":"0","num_feature":"896","num_nodes":"39","size_leaf_vector":"1"}},{"base_weights":[-3.9058104E-2,-4.8669595E-2,5.374765E-1,-7.218388E-2,7.128184E-2,5.5117138E-2,8.962128E-3,-7.8021124E-2,4.6574253E-1,5.5355906E-2,1.0422811E-2,-5.5691977E-3,7.5822975E-3,-1.128593E-1,-2.6257057E-3,8.868247E-3,-2.5783118E-3,1.4028013E-1,-1.4129269E-1,-1.1891545E-3,9.52753E-3,-1.4502591E-3,8.9284894E-4,8.783559E-4,7.154459E-3,-3.2143104E-3,3.3059248E-3],"categories":[],"categories_nodes":[],"categories_segments":[],"categories_sizes":[],"default_left":[0,0,0,0,0,0,0,0,0,0,0,0,0,0,0,0,0,0,0,0,0,0,0,0,0,0,0],"id":24,"left_children":[1,3,5,7,9,11,-1,13,15,17,-1,-1,-1,19,21,-1,-1,23,25,-1,-1,-1,-1,-1,-1,-1,-1],"loss_changes":[1.1688657E1,5.8466496E0,5.8875103E0,5.4750977E0,5.1808424E0,7.1529107E0,0E0,4.502678E0,5.88965E0,5.6227603E0,0E0,0E0,0E0,7.1673098E0,7.070756E0,0E0,0E0,7.030484E0,8.678573E0,0E0,0E0,0E0,0E0,0E0,0E0,0E0,0E0],"parents":[2147483647,0,0,1,1,2,2,3,3,4,4,5,5,7,7,8,8,9,9,13,13,14,14,17,17,18,18],"right_children":[2,4,6,8,10,12,-1,14,16,18,-1,-1,-1,20,22,-1,-1,24,26,-1,-1,-1,-1,-1,-1,-1,-1],"split_conditions":[9.3586797E-1,7.822139E-1,6.9907767E-1,9.178666E-1,6.3864434E-1,9.9783117E-1,8.962128E-3,1.3430469E-1,1.6869298E-1,6.528573E-1,1.0422811E-2,-5.5691977E-3,7.5822975E-3,9.1266686E-1,4.598955E-1,8.868247E-3,-2.5783118E-3,5.4765016E-1,6.999389E-1,-1.1891545E-3,9.52753E-3,-1.4502591E-3,8.9284894E-4,8.783559E-4,7.154459E-3,-3.2143104E-3,3.3059248E-3],"split_indices":[871,798,542,800,641,420,0,33,673,660,0,0,0,373,573,0,0,669,853,0,0,0,0,0,0,0,0],"split_type":[0,0,0,0,0,0,0,0,0,0,0,0,0,0,0,0,0,0,0,0,0,0,0,0,0,0,0],"sum_hessian":[2.1036292E3,2.070035E3,3.3594257E1,1.7310854E3,3.3894943E2,1.4750452E1,1.8843805E1,1.7133483E3,1.773723E1,3.3450076E2,4.448673E0,7.9949408E0,6.7555113E0,1.1715225E3,5.4182574E2,1.109494E1,6.6422906E0,2.3381331E2,1.0068745E2,1.1661951E3,5.327469E0,2.123297E2,3.2949603E2,2.1515764E2,1.8655666E1,7.3173775E1,2.751367E1],"tree_param":{"num_deleted":"0","num_feature":"896","num_nodes":"27","size_leaf_vector":"1"}},{"base_weights":[1.0969632E-1,2.6188709E-2,1.531197E-1,4.1839108E-1,-1.5506742E-2,6.442494E-1,1.417127E-1,1.5762538E-1,7.700501E-1,-7.617112E-2,1.7783374E-1,-3.7209776E-3,7.925816E-1,3.1925714E-1,1.116689E-1,-2.592995E-1,5.319731E-1,1.2118248E-2,4.0175897E-1,-5.1783933E-3,-4.8660453E-2,4.972581E-1,6.83309E-2,1.0842846E-2,1.0246521E-1,-1.4120069E-1,3.9347634E-1,-2.216207E-1,1.2937045E-1,-5.633005E-3,4.659261E-3,1.3047026E-3,1.18116755E-2,-7.461631E-4,9.359113E-3,-6.0118956E-4,9.849275E-3,8.472292E-3,8.241959E-4,5.789358E-3,-2.0059777E-4,6.6201794E-3,-5.9015136E-3,7.227706E-3,-3.0220028E-3,5.0433003E-3,5.711246E-4,6.175748E-3,-3.204471E-3,5.6041484E-3,1.1339088E-3],"categories":[],"categories_nodes":[],"categories_segments":[],"categories_sizes":[],"default_left":[0,0,0,0,0,0,0,0,0,0,0,0,0,0,0,0,0,0,0,0,0,0,0,0,0,0,0,0,0,0,0,0,0,0,0,0,0,0,0,0,0,0,0,0,0,0,0,0,0,0,0],"id":25,"left_children":[1,3,5,7,9,11,13,15,17,19,21,-1,23,25,27,29,31,-1,33,-1,35,37,39,-1,41,43,45,47,49,-1,-1,-1,-1,-1,-1,-1,-1,-1,-1,-1,-1,-1,-1,-1,-1,-1,-1,-1,-1,-1,-1],"loss_changes":[7.482359E0,1.1576065E1,7.516897E0,6.1162596E0,7.5254884E0,4.8931007E0,7.0507164E0,6.430258E0,4.142874E0,5.883836E0,5.3268447E0,0E0,5.251585E0,6.607998E0,6.741205E0,4.5781755E0,5.441488E0,0E0,4.39022E0,0E0,5.402088E0,5.5464716E0,5.1917305E0,0E0,3.8710802E0,3.9873595E0,6.0486946E0,4.923175E0,7.524742E0,0E0,0E0,0E0,0E0,0E0,0E0,0E0,0E0,0E0,0E0,0E0,0E0,0E0,0E0,0E0,0E0,0E0,0E0,0E0,0E0,0E0,0E0],"parents":[2147483647,0,0,1,1,2,2,3,3,4,4,5,5,6,6,7,7,8,8,9,9,10,10,12,12,13,13,14,14,15,15,16,16,18,18,20,20,21,21,22,22,24,24,25,25,26,26,27,27,28,28],"right_children":[2,4,6,8,10,12,14,16,18,20,22,-1,24,26,28,30,32,-1,34,-1,36,38,40,-1,42,44,46,48,50,-1,-1,-1,-1,-1,-1,-1,-1,-1,-1,-1,-1,-1,-1,-1,-1,-1,-1,-1,-1,-1,-1],"split_conditions":[6.600453E-2,9.6164197E-1,5.7125974E-1,1.0143272E-1,6.570953E-1,3.554633E-1,2.9244006E-1,9.60099E-1,4.6814713E-1,2.8458458E-1,6.733604E-1,-3.7209776E-3,5.887689E-1,2.8358063E-2,2.718884E-1,7.5455093E-1,7.4119806E-1,1.2118248E-2,1.0282324E-1,-5.1783933E-3,7.566921E-1,9.5919654E-2,2.9367414E-1,1.0842846E-2,4.757091E-1,6.55424E-1,7.417065E-1,1.3648382E-1,2.557243E-1,-5.633005E-3,4.659261E-3,1.3047026E-3,1.18116755E-2,-7.461631E-4,9.359113E-3,-6.0118956E-4,9.849275E-3,8.472292E-3,8.241959E-4,5.789358E-3,-2.0059777E-4,6.6201794E-3,-5.9015136E-3,7.227706E-3,-3.0220028E-3,5.0433003E-3,5.711246E-4,6.175748E-3,-3.204471E-3,5.6041484E-3,1.1339088E-3],"split_indices":[673,451,606,545,19,566,416,698,640,630,766,0,0,513,278,852,190,0,225,0,221,225,828,0,886,542,308,374,275,0,0,0,0,0,0,0,0,0,0,0,0,0,0,0,0,0,0,0,0,0,0],"split_type":[0,0,0,0,0,0,0,0,0,0,0,0,0,0,0,0,0,0,0,0,0,0,0,0,0,0,0,0,0,0,0,0,0,0,0,0,0,0,0,0,0,0,0,0,0,0,0,0,0,0,0],"sum_hessian":[2.0635317E3,7.0648724E2,1.3570444E3,6.702179E1,6.3946545E2,2.9544056E1,1.3275004E3,3.9316017E1,2.7705772E1,4.872022E2,1.5226326E2,3.5754027E0,2.5968653E1,1.9073303E2,1.1367673E3,1.874564E1,2.057038E1,1.16173315E1,1.608844E1,2.7626856E1,4.5957535E2,3.7967987E1,1.1429527E2,1.792086E1,8.047792E0,2.6350622E1,1.6438242E2,5.6749653E1,1.0800177E3,1.3382597E1,5.363043E0,1.3415642E1,7.1547365E0,8.936363E0,7.152077E0,4.5553894E2,4.0364137E0,2.0112803E1,1.7855186E1,1.609064E1,9.8204636E1,4.4783945E0,3.569398E0,3.5785003E0,2.2772123E1,1.237433E2,4.0639107E1,5.3806467E0,5.1369007E1,3.8426712E1,1.041591E3],"tree_param":{"num_deleted":"0","num_feature":"896","num_nodes":"51","size_leaf_vector":"1"}},{"base_weights":[-9.140598E-2,-1.3063638E-1,-1.5861796E-2,1.1955014E-2,-1.3540551E-1,2.09221E-2,-3.0904183E-1,3.2121345E-1,-1.4445943E-1,7.0169605E-2,-2.3059773E-1,-3.9611747E-3,6.0602548E-3,5.862266E-1,-3.1341051E-3,-8.4585324E-2,-2.0884222E-1,4.6145302E-1,3.5031077E-2,-3.362157E-1,2.151536E-1,-7.8566594E-4,1.025755E-2,-1.109334E-4,-1.8596138E-3,-2.4615738E-3,8.366501E-5,-3.3031232E-3,6.497031E-3,-2.0990707E-3,9.217777E-4,1.2460406E-3,-4.6620886E-3,-1.5420837E-3,9.890304E-3],"categories":[],"categories_nodes":[],"categories_segments":[],"categories_sizes":[],"default_left":[0,0,0,0,0,0,0,0,0,0,0,0,0,0,0,0,0,0,0,0,0,0,0,0,0,0,0,0,0,0,0,0,0,0,0],"id":26,"left_children":[1,3,5,-1,7,9,11,13,15,17,19,-1,-1,21,-1,23,25,27,29,31,33,-1,-1,-1,-1,-1,-1,-1,-1,-1,-1,-1,-1,-1,-1],"loss_changes":[6.1542187E0,8.781954E0,7.675841E0,0E0,5.681732E0,7.854727E0,6.4517865E0,4.6851964E0,5.137413E0,7.2704253E0,4.9615607E0,0E0,0E0,5.660026E0,0E0,5.1440473E0,5.104946E0,6.627119E0,6.785656E0,5.04605E0,5.9792795E0,0E0,0E0,0E0,0E0,0E0,0E0,0E0,0E0,0E0,0E0,0E0,0E0,0E0,0E0],"parents":[2147483647,0,0,1,1,2,2,4,4,5,5,6,6,7,7,8,8,9,9,10,10,13,13,15,15,16,16,17,17,18,18,19,19,20,20],"right_children":[2,4,6,-1,8,10,12,14,16,18,20,-1,-1,22,-1,24,26,28,30,32,34,-1,-1,-1,-1,-1,-1,-1,-1,-1,-1,-1,-1,-1,-1],"split_conditions":[1.2568617E-1,5.2076105E-2,7.537939E-1,1.1955014E-2,2.1774793E-1,6.916741E-1,9.192251E-1,5.246009E-1,7.1495247E-1,1.3445039E-1,6.095911E-1,-3.9611747E-3,6.0602548E-3,2.5520685E-1,-3.1341051E-3,5.82128E-1,6.3051695E-1,3.690297E-2,6.388177E-1,3.9403355E-1,1.05857536E-1,-7.8566594E-4,1.025755E-2,-1.109334E-4,-1.8596138E-3,-2.4615738E-3,8.366501E-5,-3.3031232E-3,6.497031E-3,-2.0990707E-3,9.217777E-4,1.2460406E-3,-4.6620886E-3,-1.5420837E-3,9.890304E-3],"split_indices":[833,28,700,0,694,96,700,448,606,833,861,0,0,566,0,244,822,705,446,352,97,0,0,0,0,0,0,0,0,0,0,0,0,0,0],"split_type":[0,0,0,0,0,0,0,0,0,0,0,0,0,0,0,0,0,0,0,0,0,0,0,0,0,0,0,0,0,0,0,0,0,0,0],"sum_hessian":[2.0762808E3,1.3661199E3,7.101609E2,4.0155263E0,1.3621044E3,6.318183E2,7.834258E1,2.5812569E1,1.3362919E3,5.2896765E2,1.0285067E2,7.213444E1,6.208149E0,1.8252697E1,7.559871E0,6.935886E2,6.427032E2,4.258887E1,4.8637875E2,8.3347694E1,1.950298E1,7.5576763E0,1.0695021E1,4.0162213E2,2.919665E2,5.501161E2,9.25871E1,7.9678135E0,3.4621056E1,9.131722E1,3.9506152E2,1.8188417E1,6.515928E1,1.37311125E1,5.7718673E0],"tree_param":{"num_deleted":"0","num_feature":"896","num_nodes":"35","size_leaf_vector":"1"}},{"base_weights":[-4.807479E-2,-5.2734565E-2,9.822921E-3,-1.1098375E-1,-9.760384E-3,-1.1956427E-1,7.0606416E-1,3.4704372E-1,-2.331245E-2,-1.7472135E-1,-6.0322513E-3,-1.4598978E-3,1.2484121E-2,1.0346709E-2,1.0108523E-1,-3.4305728E-3,-2.2843356E-1,2.521438E-3,-1.9502208E-3,-3.3697314E-4,7.1628015E-3,4.4025173E-3,-2.8025517E-3,-4.686496E-3,7.2634604E-5,6.230961E-4,-3.6820848E-3],"categories":[],"categories_nodes":[],"categories_segments":[],"categories_sizes":[],"default_left":[0,0,0,0,0,0,0,0,0,0,0,0,0,0,0,0,0,0,0,0,0,0,0,0,0,0,0],"id":27,"left_children":[1,3,-1,5,7,9,11,13,15,17,19,-1,-1,-1,21,23,25,-1,-1,-1,-1,-1,-1,-1,-1,-1,-1],"loss_changes":[1.0180591E1,5.274935E0,0E0,6.3570557E0,5.878192E0,5.548914E0,4.5092897E0,7.3819356E0,4.7727075E0,5.0435963E0,5.793143E0,0E0,0E0,0E0,4.46878E0,5.287561E0,4.1857843E0,0E0,0E0,0E0,0E0,0E0,0E0,0E0,0E0,0E0,0E0],"parents":[2147483647,0,0,1,1,3,3,4,4,5,5,6,6,7,7,8,8,9,9,10,10,14,14,15,15,16,16],"right_children":[2,4,-1,6,8,10,12,14,16,18,20,-1,-1,-1,22,24,26,-1,-1,-1,-1,-1,-1,-1,-1,-1,-1],"split_conditions":[9.980325E-1,6.9615966E-1,9.822921E-3,9.8636097E-1,1.2357477E-2,5.746573E-1,6.4736865E-2,7.0233357E-1,8.114935E-1,5.712432E-1,9.6342224E-1,-1.4598978E-3,1.2484121E-2,1.0346709E-2,1.0935952E-1,6.3741404E-1,4.0220958E-1,2.521438E-3,-1.9502208E-3,-3.3697314E-4,7.1628015E-3,4.4025173E-3,-2.8025517E-3,-4.686496E-3,7.2634604E-5,6.230961E-4,-3.6820848E-3],"split_indices":[746,702,0,596,417,224,289,830,126,350,724,0,0,0,257,606,534,0,0,0,0,0,0,0,0,0,0],"split_type":[0,0,0,0,0,0,0,0,0,0,0,0,0,0,0,0,0,0,0,0,0,0,0,0,0,0,0],"sum_hessian":[2.115309E3,2.1067002E3,8.608891E0,8.9372345E2,1.2129766E3,8.8528E2,8.443423E0,4.348475E1,1.1694918E3,5.954531E2,2.8982697E2,3.5524304E0,4.8909926E0,1.0654185E1,3.2830563E1,1.0670792E3,1.0241259E2,2.5741297E1,5.697118E2,2.800618E2,9.765156E0,1.7310108E1,1.5520455E1,2.3041136E1,1.0440381E3,3.3247902E1,6.9164696E1],"tree_param":{"num_deleted":"0","num_feature":"896","num_nodes":"27","size_leaf_vector":"1"}},{"base_weights":[1.338838E-1,4.0734708E-1,1.20073356E-1,6.264947E-1,5.6452986E-2,1.4577585E-1,-5.200064E-2,7.817774E-1,-2.7779057E-3,9.68049E-3,-1.2479483E-1,1.1401598E-1,2.5820446E-1,-1.4780352E-1,3.4769607E-1,1.1695476E-2,5.1663584E-1,-2.71134E-1,7.913469E-3,3.139484E-1,9.103178E-2,1.9648385E-1,5.6227934E-1,-1.7766789E-1,7.321266E-3,6.4307845E-1,-3.6256965E-2,-2.6507052E-3,7.225889E-3,8.042642E-3,-4.051213E-3,-1.8064936E-3,4.392695E-3,1.0514652E-3,-3.582217E-3,5.6878477E-3,1.4453607E-3,8.983143E-3,2.6822716E-3,2.3564678E-3,-2.3614888E-3,1.0721627E-2,1.3278705E-3,8.470262E-3,-2.9077504E-3],"categories":[],"categories_nodes":[],"categories_segments":[],"categories_sizes":[],"default_left":[0,0,0,0,0,0,0,0,0,0,0,0,0,0,0,0,0,0,0,0,0,0,0,0,0,0,0,0,0,0,0,0,0,0,0,0,0,0,0,0,0,0,0,0,0],"id":28,"left_children":[1,3,5,7,9,11,13,15,-1,-1,17,19,21,23,25,-1,27,29,-1,31,33,35,37,39,-1,41,43,-1,-1,-1,-1,-1,-1,-1,-1,-1,-1,-1,-1,-1,-1,-1,-1,-1,-1],"loss_changes":[8.007751E0,7.8187923E0,8.995218E0,9.022049E0,6.766304E0,6.2847176E0,1.0192259E1,4.8767395E0,0E0,0E0,4.830827E0,6.3157043E0,7.1847095E0,5.746365E0,5.864309E0,0E0,5.5363703E0,4.665429E0,0E0,8.764412E0,7.684449E0,6.223076E0,6.150738E0,5.0082355E0,0E0,6.1964674E0,5.4554353E0,0E0,0E0,0E0,0E0,0E0,0E0,0E0,0E0,0E0,0E0,0E0,0E0,0E0,0E0,0E0,0E0,0E0,0E0],"parents":[2147483647,0,0,1,1,2,2,3,3,4,4,5,5,6,6,7,7,10,10,11,11,12,12,13,13,14,14,16,16,17,17,19,19,20,20,21,21,22,22,23,23,25,25,26,26],"right_children":[2,4,6,8,10,12,14,16,-1,-1,18,20,22,24,26,-1,28,30,-1,32,34,36,38,40,-1,42,44,-1,-1,-1,-1,-1,-1,-1,-1,-1,-1,-1,-1,-1,-1,-1,-1,-1,-1],"split_conditions":[2.6619518E-1,4.8229602E-1,2.45707E-1,8.050392E-1,2.2740135E-1,6.075634E-1,7.651594E-1,3.2274786E-1,-2.7779057E-3,9.68049E-3,5.5084205E-1,6.152069E-1,7.8625214E-1,9.413615E-1,7.088475E-1,1.1695476E-2,2.1774793E-1,5.83861E-1,7.913469E-3,3.8048465E-2,4.9697664E-1,4.7057667E-1,7.9499644E-1,9.615421E-1,7.321266E-3,4.8109543E-1,3.355214E-1,-2.6507052E-3,7.225889E-3,8.042642E-3,-4.051213E-3,-1.8064936E-3,4.392695E-3,1.0514652E-3,-3.582217E-3,5.6878477E-3,1.4453607E-3,8.983143E-3,2.6822716E-3,2.3564678E-3,-2.3614888E-3,1.0721627E-2,1.3278705E-3,8.470262E-3,-2.9077504E-3],"split_indices":[374,691,449,318,184,253,767,221,0,0,888,606,382,9,819,0,342,734,0,833,833,210,318,762,0,128,85,0,0,0,0,0,0,0,0,0,0,0,0,0,0,0,0,0,0],"split_type":[0,0,0,0,0,0,0,0,0,0,0,0,0,0,0,0,0,0,0,0,0,0,0,0,0,0,0,0,0,0,0,0,0,0,0,0,0,0,0,0,0,0,0,0,0],"sum_hessian":[2.1322834E3,1.01137886E2,2.0311456E3,6.1772823E1,3.9365063E1,1.7673164E3,2.6382928E2,5.2826843E1,8.94598E0,5.8287234E0,3.3536343E1,1.3796064E3,3.8770993E2,2.133273E2,5.0501984E1,2.0192808E1,3.2634033E1,2.951197E1,4.0243707E0,1.409414E2,1.238665E3,3.236601E2,6.4049835E1,2.0707735E2,6.2499495E0,2.8161736E1,2.2340246E1,6.6868453E0,2.594719E1,2.6927004E0,2.681927E1,2.8164658E1,1.1277676E2,1.2024843E3,3.6180763E1,3.8911537E1,2.8474854E2,2.9124622E1,3.4925217E1,2.503267E1,1.8204468E2,1.4766215E1,1.3395521E1,4.474139E0,1.7866108E1],"tree_param":{"num_deleted":"0","num_feature":"896","num_nodes":"45","size_leaf_vector":"1"}},{"base_weights":[-6.953399E-2,-1.1959105E-1,9.278992E-3,2.2355697E-1,-1.3519146E-1,-4.5612123E-2,1.59009E-1,9.64616E-3,5.5518582E-2,-1.4414756E-1,4.3642238E-1,4.342675E-2,-1.6825758E-1,-1.2502818E-1,2.621147E-1,-1.7503513E-1,4.700912E-1,7.936513E-3,-1.4894156E-1,-4.7163414E-3,8.197592E-3,-7.647152E-2,2.0337008E-1,-2.5507808E-1,1.00491345E-1,9.12744E-3,-2.3505805E-1,-4.7857538E-2,3.8024327E-1,6.6382647E-3,-3.4337766E-3,7.947464E-3,-5.866706E-3,-2.7551001E-3,-1.1430298E-3,5.810255E-5,-4.508281E-3,1.1019692E-2,1.4846015E-3,-2.861945E-3,7.444197E-3,3.9807963E-3,-2.453747E-3,-4.3331394E-3,3.2160948E-3,1.983756E-3,-6.230303E-3,8.023679E-3,2.1024006E-3],"categories":[],"categories_nodes":[],"categories_segments":[],"categories_sizes":[],"default_left":[0,0,0,0,0,0,0,0,0,0,0,0,0,0,0,0,0,0,0,0,0,0,0,0,0,0,0,0,0,0,0,0,0,0,0,0,0,0,0,0,0,0,0,0,0,0,0,0,0],"id":29,"left_children":[1,3,5,7,9,11,13,-1,15,17,19,21,23,25,27,29,31,-1,33,-1,-1,35,37,39,41,-1,43,45,47,-1,-1,-1,-1,-1,-1,-1,-1,-1,-1,-1,-1,-1,-1,-1,-1,-1,-1,-1,-1],"loss_changes":[8.278663E0,6.899746E0,6.7131577E0,6.9123487E0,6.349903E0,6.5356183E0,6.4492717E0,0E0,4.557394E0,5.5419426E0,7.00634E0,6.672989E0,5.897604E0,6.9344664E0,5.9160433E0,4.5375347E0,6.2390404E0,0E0,5.268799E0,0E0,0E0,6.1109657E0,7.2257576E0,5.941881E0,6.452285E0,0E0,6.06003E0,6.503161E0,8.191162E0,0E0,0E0,0E0,0E0,0E0,0E0,0E0,0E0,0E0,0E0,0E0,0E0,0E0,0E0,0E0,0E0,0E0,0E0,0E0,0E0],"parents":[2147483647,0,0,1,1,2,2,3,3,4,4,5,5,6,6,8,8,9,9,10,10,11,11,12,12,13,13,14,14,15,15,16,16,18,18,21,21,22,22,23,23,24,24,26,26,27,27,28,28],"right_children":[2,4,6,8,10,12,14,-1,16,18,20,22,24,26,28,30,32,-1,34,-1,-1,36,38,40,42,-1,44,46,48,-1,-1,-1,-1,-1,-1,-1,-1,-1,-1,-1,-1,-1,-1,-1,-1,-1,-1,-1,-1],"split_conditions":[5.4547995E-1,1.05697E-1,1.5788756E-1,4.566373E-2,7.8869855E-1,7.216051E-1,3.8035226E-1,9.64616E-3,2.593182E-1,1.0117903E-2,4.8125452E-1,5.6215125E-1,5.930669E-1,1.0224037E-1,3.2103384E-1,1.9843747E-1,3.7230527E-1,7.936513E-3,3.6563563E-1,-4.7163414E-3,8.197592E-3,6.8076265E-1,1.982737E-1,4.9697664E-1,4.8748994E-1,9.12744E-3,1.6124311E-1,2.5093836E-1,3.737909E-1,6.6382647E-3,-3.4337766E-3,7.947464E-3,-5.866706E-3,-2.7551001E-3,-1.1430298E-3,5.810255E-5,-4.508281E-3,1.1019692E-2,1.4846015E-3,-2.861945E-3,7.444197E-3,3.9807963E-3,-2.453747E-3,-4.3331394E-3,3.2160948E-3,1.983756E-3,-6.230303E-3,8.023679E-3,2.1024006E-3],"split_indices":[800,671,833,609,566,670,156,0,693,84,416,531,23,63,468,640,693,0,21,0,0,19,352,1,406,0,257,511,608,0,0,0,0,0,0,0,0,0,0,0,0,0,0,0,0,0,0,0,0],"split_type":[0,0,0,0,0,0,0,0,0,0,0,0,0,0,0,0,0,0,0,0,0,0,0,0,0,0,0,0,0,0,0,0,0,0,0,0,0,0,0,0,0,0,0,0,0,0,0,0,0],"sum_hessian":[2.0971616E3,1.2822435E3,8.14918E2,5.5179516E1,1.2270641E3,5.968191E2,2.180989E2,9.359543E0,4.5819973E1,1.2088712E3,1.8192905E1,3.461587E2,2.5066043E2,5.8028507E1,1.600704E2,2.9816244E1,1.600373E1,5.328992E0,1.2035421E3,5.3104897E0,1.2882416E1,1.9814511E2,1.4801358E2,1.8949432E2,6.1166096E1,4.8787985E0,5.3149708E1,4.433338E1,1.1573702E2,4.4737372E0,2.5342506E1,1.2451461E1,3.55227E0,2.608025E2,9.427397E2,1.6313776E2,3.5007347E1,7.5309973E0,1.4048257E2,1.846216E2,4.8727384E0,3.2828724E1,2.8337374E1,3.9411003E1,1.3738707E1,3.1493511E1,1.2839871E1,3.2409443E1,8.332758E1],"tree_param":{"num_deleted":"0","num_feature":"896","num_nodes":"49","size_leaf_vector":"1"}},{"base_weights":[-5.439272E-2,-6.742675E-2,2.2538778E-1,-7.708531E-2,2.642644E-1,1.4275016E-1,1.0635449E-2,-8.812453E-2,2.0247065E-1,4.4467527E-1,-5.8055627E-3,2.3764816E-1,-5.0471313E-3,-1.4003853E-1,-2.769002E-2,8.3231535E-3,4.8152108E-2,1.9053558E-1,1.0346889E-2,5.10592E-1,-4.191846E-2,-3.1152135E-3,-1.0523181E-3,-9.07643E-4,9.267376E-4,-1.6770526E-3,6.1949184E-3,5.4988265E-3,-2.183495E-3,8.528199E-3,-1.7187443E-3,5.418475E-3,-2.3999284E-3],"categories":[],"categories_nodes":[],"categories_segments":[],"categories_sizes":[],"default_left":[0,0,0,0,0,0,0,0,0,0,0,0,0,0,0,0,0,0,0,0,0,0,0,0,0,0,0,0,0,0,0,0,0],"id":30,"left_children":[1,3,5,7,9,11,-1,13,15,17,-1,19,-1,21,23,-1,25,27,-1,29,31,-1,-1,-1,-1,-1,-1,-1,-1,-1,-1,-1,-1],"loss_changes":[7.5376406E0,6.337266E0,6.1978106E0,5.9331055E0,8.775824E0,5.32355E0,0E0,5.78349E0,7.035798E0,6.7664413E0,0E0,5.722609E0,0E0,5.911833E0,6.4416537E0,0E0,7.4254827E0,5.053899E0,0E0,8.912913E0,4.472983E0,0E0,0E0,0E0,0E0,0E0,0E0,0E0,0E0,0E0,0E0,0E0,0E0],"parents":[2147483647,0,0,1,1,2,2,3,3,4,4,5,5,7,7,8,8,9,9,11,11,13,13,14,14,16,16,17,17,19,19,20,20],"right_children":[2,4,6,8,10,12,-1,14,16,18,-1,20,-1,22,24,-1,26,28,-1,30,32,-1,-1,-1,-1,-1,-1,-1,-1,-1,-1,-1,-1],"split_conditions":[8.3145744E-1,8.199961E-1,3.8849658E-1,9.953223E-1,7.014449E-1,6.601593E-1,1.0635449E-2,5.1338136E-1,4.170357E-2,8.5464776E-1,-5.8055627E-3,9.153409E-2,-5.0471313E-3,6.4241415E-1,5.746573E-1,8.3231535E-3,6.291436E-1,5.2635103E-1,1.0346889E-2,9.9584565E-2,4.170357E-2,-3.1152135E-3,-1.0523181E-3,-9.07643E-4,9.267376E-4,-1.6770526E-3,6.1949184E-3,5.4988265E-3,-2.183495E-3,8.528199E-3,-1.7187443E-3,5.418475E-3,-2.3999284E-3],"split_indices":[576,723,705,874,352,188,0,156,129,788,0,417,0,670,224,0,797,188,0,673,1,0,0,0,0,0,0,0,0,0,0,0,0],"split_type":[0,0,0,0,0,0,0,0,0,0,0,0,0,0,0,0,0,0,0,0,0,0,0,0,0,0,0,0,0,0,0,0,0],"sum_hessian":[2.0618274E3,1.9707747E3,9.105271E1,1.9157571E3,5.501761E1,8.3915306E1,7.137404E0,1.8436395E3,7.211761E1,4.5707108E1,9.3105E0,7.3715065E1,1.0200246E1,9.910219E2,8.526176E2,1.3378144E1,5.873946E1,3.2814945E1,1.2892162E1,3.6881195E1,3.683387E1,1.6810493E2,8.2291693E2,5.6003796E2,2.9257965E2,4.313314E1,1.5606322E1,1.730976E1,1.5505185E1,2.4459955E1,1.2421239E1,8.885206E0,2.7948662E1],"tree_param":{"num_deleted":"0","num_feature":"896","num_nodes":"33","size_leaf_vector":"1"}},{"base_weights":[1.0680138E-1,1.1463772E-1,-4.7478318E-1,1.7202474E-2,1.5476868E-1,5.4118773E-3,-6.0469657E-3,2.2701319E-1,-4.406106E-2,1.8104908E-1,-3.920723E-2,1.0178571E-1,6.949785E-1,-1.9140609E-1,4.072322E-2,1.6792755E-1,6.53753E-1,-9.510472E-2,5.7284456E-1,-7.289456E-4,4.024825E-3,8.910617E-3,-5.76995E-4,5.4887217E-3,-2.427703E-3,-1.4637031E-4,4.2129164E-3,-5.519515E-3,1.7615199E-3,1.0123076E-2,1.4210952E-3,5.845589E-3,-1.4762044E-3,-5.5284165E-3,8.687921E-3],"categories":[],"categories_nodes":[],"categories_segments":[],"categories_sizes":[],"default_left":[0,0,0,0,0,0,0,0,0,0,0,0,0,0,0,0,0,0,0,0,0,0,0,0,0,0,0,0,0,0,0,0,0,0,0],"id":31,"left_children":[1,3,5,7,9,-1,-1,11,13,15,17,19,21,23,25,27,29,31,33,-1,-1,-1,-1,-1,-1,-1,-1,-1,-1,-1,-1,-1,-1,-1,-1],"loss_changes":[9.627611E0,8.104742E0,3.973197E0,7.7991667E0,7.492817E0,0E0,0E0,7.9645844E0,5.877633E0,7.9126587E0,6.0768933E0,5.7391105E0,4.2330103E0,6.5467505E0,6.2785964E0,7.009735E0,6.148778E0,5.803533E0,5.376133E0,0E0,0E0,0E0,0E0,0E0,0E0,0E0,0E0,0E0,0E0,0E0,0E0,0E0,0E0,0E0,0E0],"parents":[2147483647,0,0,1,1,2,2,3,3,4,4,7,7,8,8,9,9,10,10,11,11,12,12,13,13,14,14,15,15,16,16,17,17,18,18],"right_children":[2,4,6,8,10,-1,-1,12,14,16,18,20,22,24,26,28,30,32,34,-1,-1,-1,-1,-1,-1,-1,-1,-1,-1,-1,-1,-1,-1,-1,-1],"split_conditions":[9.967852E-1,4.049299E-1,2.4643195E-1,6.516159E-1,2.5470287E-1,5.4118773E-3,-6.0469657E-3,6.920997E-1,4.351028E-1,8.51608E-1,8.8863575E-1,6.6864145E-1,1.8470703E-1,1.5261434E-1,7.2330296E-1,5.372097E-2,5.002042E-1,9.604728E-1,1.32325E-2,-7.289456E-4,4.024825E-3,8.910617E-3,-5.76995E-4,5.4887217E-3,-2.427703E-3,-1.4637031E-4,4.2129164E-3,-5.519515E-3,1.7615199E-3,1.0123076E-2,1.4210952E-3,5.845589E-3,-1.4762044E-3,-5.5284165E-3,8.687921E-3],"split_indices":[878,96,576,894,449,0,0,734,56,254,628,895,769,503,544,31,160,593,481,0,0,0,0,0,0,0,0,0,0,0,0,0,0,0,0],"split_type":[0,0,0,0,0,0,0,0,0,0,0,0,0,0,0,0,0,0,0,0,0,0,0,0,0,0,0,0,0,0,0,0,0,0,0],"sum_hessian":[2.0995366E3,2.0724155E3,2.7121082E1,6.04984E2,1.4674315E3,2.6772625E0,2.4443819E1,1.3611661E2,4.688674E2,1.2924001E3,1.7503137E2,1.0834185E2,2.7774765E1,1.7079257E2,2.9807483E2,1.2588127E3,3.358744E1,1.6115776E2,1.3873609E1,6.893251E1,3.940934E1,2.195853E1,5.816236E0,1.0315327E1,1.6047725E2,2.6096793E2,3.71069E1,1.2508656E1,1.2463041E3,1.9258984E1,1.4328457E1,1.0762553E1,1.503952E2,2.6875458E0,1.1186063E1],"tree_param":{"num_deleted":"0","num_feature":"896","num_nodes":"35","size_leaf_vector":"1"}},{"base_weights":[-5.678537E-2,-3.9412986E-2,-2.4814294E-1,1.4939666E-1,-5.727165E-2,4.4828453E-3,-2.8852323E-1,-2.098361E-2,4.1634658E-1,-6.1829943E-2,7.463003E-1,-2.347243E-2,-3.827991E-1,-4.465233E-3,9.7308025E-2,-3.6961227E-3,5.490161E-1,7.4037733E-3,-6.577748E-2,1.24935135E-2,6.2899046E-5,8.564152E-3,-1.4456542E-3,1.0108061E-1,-4.615258E-3,-1.2468577E-4,8.058926E-3,3.120069E-3,9.65962E-3,-8.015557E-4,1.4200232E-3,-3.8372953E-3,7.0564807E-3],"categories":[],"categories_nodes":[],"categories_segments":[],"categories_sizes":[],"default_left":[0,0,0,0,0,0,0,0,0,0,0,0,0,0,0,0,0,0,0,0,0,0,0,0,0,0,0,0,0,0,0,0,0],"id":32,"left_children":[1,3,5,7,9,-1,11,13,15,17,19,21,23,-1,25,-1,27,-1,29,-1,-1,-1,-1,31,-1,-1,-1,-1,-1,-1,-1,-1,-1],"loss_changes":[6.872831E0,6.4125967E0,4.959133E0,7.485916E0,6.40442E0,0E0,4.0710735E0,5.124841E0,6.875224E0,5.5007577E0,3.635497E0,4.7675514E0,4.5432663E0,0E0,6.2091827E0,0E0,5.1399555E0,0E0,5.0419645E0,0E0,0E0,0E0,0E0,5.3309603E0,0E0,0E0,0E0,0E0,0E0,0E0,0E0,0E0,0E0],"parents":[2147483647,0,0,1,1,2,2,3,3,4,4,6,6,7,7,8,8,9,9,10,10,11,11,12,12,14,14,16,16,18,18,23,23],"right_children":[2,4,6,8,10,-1,12,14,16,18,20,22,24,-1,26,-1,28,-1,30,-1,-1,-1,-1,32,-1,-1,-1,-1,-1,-1,-1,-1,-1],"split_conditions":[8.114935E-1,1.1794324E-1,2.752589E-1,1.0719599E-1,8.604876E-1,4.4828453E-3,3.8582292E-1,3.3552405E-1,3.000775E-1,1.9322783E-1,8.9718235E-1,1.2841122E-1,2.740941E-1,-4.465233E-3,2.343195E-1,-3.6961227E-3,1.2691258E-1,7.4037733E-3,7.9973406E-1,1.24935135E-2,6.2899046E-5,8.564152E-3,-1.4456542E-3,4.5988762E-1,-4.615258E-3,-1.2468577E-4,8.058926E-3,3.120069E-3,9.65962E-3,-8.015557E-4,1.4200232E-3,-3.8372953E-3,7.0564807E-3],"split_indices":[766,660,61,257,530,0,800,220,800,861,500,735,192,0,545,0,449,0,444,0,0,0,0,637,0,0,0,0,0,0,0,0,0],"split_type":[0,0,0,0,0,0,0,0,0,0,0,0,0,0,0,0,0,0,0,0,0,0,0,0,0,0,0,0,0,0,0,0,0],"sum_hessian":[2.069371E3,1.8982449E3,1.7112608E2,1.6339507E2,1.7348499E3,8.844651E0,1.6228143E2,1.0030011E2,6.3094955E1,1.7259822E3,8.867648E0,4.2905163E1,1.1937627E2,2.1273712E1,7.902639E1,8.867454E0,5.42275E1,7.564187E0,1.718418E3,4.888927E0,3.9787211E0,4.452408E0,3.8452755E1,1.638281E1,1.02993454E2,6.92447E1,9.781697E0,3.553503E1,1.869247E1,1.6094648E3,1.0895315E2,9.289271E0,7.0935397E0],"tree_param":{"num_deleted":"0","num_feature":"896","num_nodes":"33","size_leaf_vector":"1"}},{"base_weights":[-4.460192E-2,-5.453805E-2,4.8499015E-1,-8.2019225E-2,7.74963E-2,-3.7496758E-3,6.6377383E-1,-9.6641816E-2,2.0844589E-1,-1.238403E-1,1.5377447E-1,9.379502E-1,1.69414E-1,-1.0149304E-1,7.788611E-3,3.1168142E-1,-5.724489E-3,1.0949404E-2,-1.6963145E-1,-2.3890549E-1,2.1083406E-1,1.1345003E-2,-9.303006E-4,5.3358423E-3,-5.9094145E-3,-1.0777555E-3,5.6551187E-3,-1.7428662E-3,4.737664E-3,-2.8671834E-3,3.30958E-3,8.225558E-3,-3.6046884E-3,1.2253517E-2,1.8537156E-3],"categories":[],"categories_nodes":[],"categories_segments":[],"categories_sizes":[],"default_left":[0,0,0,0,0,0,0,0,0,0,0,0,0,0,0,0,0,0,0,0,0,0,0,0,0,0,0,0,0,0,0,0,0,0,0],"id":33,"left_children":[1,3,5,7,9,-1,11,13,15,17,19,21,23,25,-1,27,-1,-1,29,31,33,-1,-1,-1,-1,-1,-1,-1,-1,-1,-1,-1,-1,-1,-1],"loss_changes":[1.0956336E1,7.4074845E0,6.1363E0,7.193181E0,5.423674E0,0E0,4.192622E0,6.8906775E0,6.712877E0,5.596362E0,5.778975E0,4.1647263E0,3.7966304E0,6.369522E0,0E0,5.7229285E0,0E0,0E0,5.581059E0,4.488227E0,5.6701612E0,0E0,0E0,0E0,0E0,0E0,0E0,0E0,0E0,0E0,0E0,0E0,0E0,0E0,0E0],"parents":[2147483647,0,0,1,1,2,2,3,3,4,4,6,6,7,7,8,8,9,9,10,10,11,11,12,12,13,13,15,15,18,18,19,19,20,20],"right_children":[2,4,6,8,10,-1,12,14,16,18,20,22,24,26,-1,28,-1,-1,30,32,34,-1,-1,-1,-1,-1,-1,-1,-1,-1,-1,-1,-1,-1,-1],"split_conditions":[9.3586797E-1,7.813363E-1,6.597666E-1,7.9026586E-1,5.59132E-2,-3.7496758E-3,5.9583193E-1,9.930745E-1,6.8226403E-1,1.8062051E-2,2.9022428E-1,7.4483585E-1,5.7251877E-1,9.8636097E-1,7.788611E-3,5.41971E-1,-5.724489E-3,1.0949404E-2,1.8470703E-1,9.5951927E-1,1.962269E-1,1.1345003E-2,-9.303006E-4,5.3358423E-3,-5.9094145E-3,-1.0777555E-3,5.6551187E-3,-1.7428662E-3,4.737664E-3,-2.8671834E-3,3.30958E-3,8.225558E-3,-3.6046884E-3,1.2253517E-2,1.8537156E-3],"split_indices":[871,798,670,787,193,0,288,596,86,97,728,787,416,660,0,660,0,0,737,586,466,0,0,0,0,0,0,0,0,0,0,0,0,0,0],"split_type":[0,0,0,0,0,0,0,0,0,0,0,0,0,0,0,0,0,0,0,0,0,0,0,0,0,0,0,0,0,0,0,0,0,0,0],"sum_hessian":[2.0760977E3,2.038744E3,3.73536E1,1.6878248E3,3.5091925E2,6.248925E0,3.1104675E1,1.6075641E3,8.026071E1,9.624818E1,2.5467107E2,1.9430851E1,1.1673824E1,1.5995585E3,8.005667E0,7.139866E1,8.86205E0,2.6660686E0,9.358211E1,3.1906425E1,2.2276465E2,1.6287064E1,3.143786E0,8.101326E0,3.5724986E0,1.5862637E3,1.3294769E1,1.7723242E1,5.367542E1,7.627506E1,1.7307043E1,2.6640053E0,2.924242E1,4.450793E0,2.1831384E2],"tree_param":{"num_deleted":"0","num_feature":"896","num_nodes":"35","size_leaf_vector":"1"}},{"base_weights":[1.2121446E-1,1.283097E-1,-4.5380026E-1,1.1089661E-1,3.2858244E-1,5.3966814E-3,-5.9113884E-3,1.8479358E-1,5.4915342E-2,-2.7294809E-3,4.0773773E-1,1.4265671E-1,4.1825375E-1,7.8105964E-2,-1.9878185E-1,5.200064E-1,-9.121255E-2,1.2950738E-3,8.845673E-3,1.5348465E-3,6.9203298E-3,3.898783E-3,5.841903E-4,-2.872838E-3,3.3950666E-3,6.048001E-3,8.401144E-5,7.2476515E-3,-3.5726803E-3],"categories":[],"categories_nodes":[],"categories_segments":[],"categories_sizes":[],"default_left":[0,0,0,0,0,0,0,0,0,0,0,0,0,0,0,0,0,0,0,0,0,0,0,0,0,0,0,0,0],"id":34,"left_children":[1,3,5,7,9,-1,-1,11,13,-1,15,17,19,21,23,25,27,-1,-1,-1,-1,-1,-1,-1,-1,-1,-1,-1,-1],"loss_changes":[8.781643E0,7.331936E0,3.8455086E0,8.037567E0,8.122068E0,0E0,0E0,8.18486E0,6.536003E0,0E0,8.409731E0,7.0247726E0,9.085747E0,6.2496653E0,4.4756737E0,5.1634026E0,6.3495474E0,0E0,0E0,0E0,0E0,0E0,0E0,0E0,0E0,0E0,0E0,0E0,0E0],"parents":[2147483647,0,0,1,1,2,2,3,3,4,4,7,7,8,8,10,10,11,11,12,12,13,13,14,14,15,15,16,16],"right_children":[2,4,6,8,10,-1,-1,12,14,-1,16,18,20,22,24,26,28,-1,-1,-1,-1,-1,-1,-1,-1,-1,-1,-1,-1],"split_conditions":[9.967852E-1,7.460345E-1,2.4643195E-1,8.1225984E-2,6.114941E-1,5.3966814E-3,-5.9113884E-3,7.759329E-1,6.716042E-1,-2.7294809E-3,6.424245E-1,9.970473E-1,4.9736226E-1,2.557243E-1,8.851828E-1,8.505132E-1,7.759329E-1,1.2950738E-3,8.845673E-3,1.5348465E-3,6.9203298E-3,3.898783E-3,5.841903E-4,-2.872838E-3,3.3950666E-3,6.048001E-3,8.401144E-5,7.2476515E-3,-3.5726803E-3],"split_indices":[878,245,576,545,574,0,0,127,82,0,662,49,659,339,552,884,159,0,0,0,0,0,0,0,0,0,0,0,0],"split_type":[0,0,0,0,0,0,0,0,0,0,0,0,0,0,0,0,0,0,0,0,0,0,0,0,0,0,0,0,0],"sum_hessian":[2.13716E3,2.1118777E3,2.5282095E1,1.9443743E3,1.675035E2,2.6797833E0,2.2602312E1,8.370896E2,1.1072845E3,1.9220682E1,1.4828282E2,7.104692E2,1.2662045E2,1.0151786E3,9.2105995E1,1.2101179E2,2.727103E1,6.988046E2,1.1664543E1,6.4834045E1,6.1786407E1,5.9973648E1,9.5520496E2,7.959916E1,1.2506843E1,1.040034E2,1.7008387E1,6.2736936E0,2.0997337E1],"tree_param":{"num_deleted":"0","num_feature":"896","num_nodes":"29","size_leaf_vector":"1"}},{"base_weights":[-6.88745E-2,-7.6505706E-2,2.5190863E-1,2.1273679E-1,-8.5515246E-2,-1.7261823E-1,5.8484143E-1,5.8623563E-2,8.108635E-1,-6.722025E-2,-2.2772911E-1,-3.5138256E-3,8.280382E-3,8.6264616E-1,-2.5562423E-3,-1.6399688E-1,7.411507E-1,-2.7539798E-3,1.133676E-2,-3.7759744E-2,-1.9225958E-1,4.8306292E-1,-2.8088158E-1,4.6761972E-5,1.0673806E-2,1.0750033E-2,-2.8681846E-3,-2.7304029E-3,1.0447577E-2,1.6249999E-4,-1.212754E-3,-2.4805726E-3,1.5725277E-3,7.783368E-3,-5.6466134E-3,-3.0683517E-3,8.117554E-3],"categories":[],"categories_nodes":[],"categories_segments":[],"categories_sizes":[],"default_left":[0,0,0,0,0,0,0,0,0,0,0,0,0,0,0,0,0,0,0,0,0,0,0,0,0,0,0,0,0,0,0,0,0,0,0,0,0],"id":35,"left_children":[1,3,5,7,9,11,13,15,17,19,21,-1,-1,23,-1,25,27,-1,-1,29,31,33,35,-1,-1,-1,-1,-1,-1,-1,-1,-1,-1,-1,-1,-1,-1],"loss_changes":[5.135932E0,5.3404922E0,6.9984713E0,5.6659427E0,5.1398735E0,4.2275376E0,6.652628E0,7.773735E0,4.680602E0,6.4649167E0,8.652222E0,0E0,0E0,3.611783E0,0E0,6.1474495E0,4.1057143E0,0E0,0E0,6.3842974E0,6.4620857E0,5.3504076E0,5.9658375E0,0E0,0E0,0E0,0E0,0E0,0E0,0E0,0E0,0E0,0E0,0E0,0E0,0E0,0E0],"parents":[2147483647,0,0,1,1,2,2,3,3,4,4,5,5,6,6,7,7,8,8,9,9,10,10,13,13,15,15,16,16,19,19,20,20,21,21,22,22],"right_children":[2,4,6,8,10,12,14,16,18,20,22,-1,-1,24,-1,26,28,-1,-1,30,32,34,36,-1,-1,-1,-1,-1,-1,-1,-1,-1,-1,-1,-1,-1,-1],"split_conditions":[8.0867416E-1,9.0583E-2,4.8331794E-1,1.2181005E-1,7.9751235E-1,3.2308912E-1,7.605684E-1,3.2095593E-1,3.0917564E-1,1.9333054E-1,1.0155935E-1,-3.5138256E-3,8.280382E-3,3.2444084E-1,-2.5562423E-3,1.5697734E-1,4.1350564E-1,-2.7539798E-3,1.133676E-2,6.013417E-1,7.852891E-1,5.871092E-1,9.957386E-1,4.6761972E-5,1.0673806E-2,1.0750033E-2,-2.8681846E-3,-2.7304029E-3,1.0447577E-2,1.6249999E-4,-1.212754E-3,-2.4805726E-3,1.5725277E-3,7.783368E-3,-5.6466134E-3,-3.0683517E-3,8.117554E-3],"split_indices":[56,671,544,596,478,97,286,882,252,129,820,0,0,448,0,627,19,0,0,287,126,384,10,0,0,0,0,0,0,0,0,0,0,0,0,0,0],"split_type":[0,0,0,0,0,0,0,0,0,0,0,0,0,0,0,0,0,0,0,0,0,0,0,0,0,0,0,0,0,0,0,0,0,0,0,0,0],"sum_hessian":[2.0891724E3,2.0413712E3,4.780126E1,6.098227E1,1.9803889E3,2.1222149E1,2.6579111E1,4.9361744E1,1.1620525E1,1.7559666E3,2.2442232E2,1.8566807E1,2.655343E0,1.9950634E1,6.628478E0,3.7794125E1,1.1567619E1,2.6717699E0,8.948756E0,1.4221871E3,3.3377942E2,1.5051738E1,2.0937057E2,3.984218E0,1.5966415E1,2.6939282E0,3.5100197E1,2.6648102E0,8.902809E0,8.6285095E2,5.5933624E2,2.8860617E2,4.517324E1,1.1962174E1,3.0895636E0,2.0539047E2,3.9801145E0],"tree_param":{"num_deleted":"0","num_feature":"896","num_nodes":"37","size_leaf_vector":"1"}},{"base_weights":[-4.3577835E-2,-5.5061333E-2,4.956249E-1,-1.7923579E-1,-2.9252402E-2,6.0622877E-1,-5.8800494E-3,-4.5919803E-1,-1.1899811E-1,5.9110586E-2,-8.4208734E-2,2.9904878E-1,1.0166675E0,5.1872404E-3,-5.2727985E-1,1.564768E-1,-1.8568215E-1,-8.030296E-2,1.307677E-1,-2.1364531E-1,-2.4218796E-2,6.527351E-3,-2.7725403E-3,-1.7936323E-5,1.3413586E-2,5.515189E-3,-5.904479E-3,-1.7632677E-3,4.171799E-3,-2.5049536E-3,1.8581592E-3,-1.9174165E-3,1.7151131E-3,9.698806E-4,5.352725E-3,6.446385E-4,-2.7058278E-3,3.155904E-4,-2.1057765E-3],"categories":[],"categories_nodes":[],"categories_segments":[],"categories_sizes":[],"default_left":[0,0,0,0,0,0,0,0,0,0,0,0,0,0,0,0,0,0,0,0,0,0,0,0,0,0,0,0,0,0,0,0,0,0,0,0,0,0,0],"id":36,"left_children":[1,3,5,7,9,11,-1,13,15,17,19,21,23,-1,25,27,29,31,33,35,37,-1,-1,-1,-1,-1,-1,-1,-1,-1,-1,-1,-1,-1,-1,-1,-1,-1,-1],"loss_changes":[1.2961589E1,6.552553E0,5.5786924E0,5.8802023E0,8.237617E0,4.751878E0,0E0,4.3907776E0,5.3738422E0,6.5106106E0,8.114216E0,5.10542E0,5.4652977E0,0E0,4.174904E0,5.0051117E0,5.6161003E0,6.199528E0,5.8558125E0,5.1727114E0,7.403717E0,0E0,0E0,0E0,0E0,0E0,0E0,0E0,0E0,0E0,0E0,0E0,0E0,0E0,0E0,0E0,0E0,0E0,0E0],"parents":[2147483647,0,0,1,1,2,2,3,3,4,4,5,5,7,7,8,8,9,9,10,10,11,11,12,12,14,14,15,15,16,16,17,17,18,18,19,19,20,20],"right_children":[2,4,6,8,10,12,-1,14,16,18,20,22,24,-1,26,28,30,32,34,36,38,-1,-1,-1,-1,-1,-1,-1,-1,-1,-1,-1,-1,-1,-1,-1,-1,-1,-1],"split_conditions":[9.960246E-1,3.769311E-1,8.0462927E-1,6.529843E-1,4.8751E-1,1.05857536E-1,-5.8800494E-3,2.8610772E-1,4.400815E-2,6.185437E-2,5.7100636E-1,1.1219239E-1,6.542837E-1,5.1872404E-3,1.7478406E-1,8.617248E-2,3.9312732E-1,5.380163E-1,3.431405E-1,4.2393765E-1,7.4270666E-1,6.527351E-3,-2.7725403E-3,-1.7936323E-5,1.3413586E-2,5.515189E-3,-5.904479E-3,-1.7632677E-3,4.171799E-3,-2.5049536E-3,1.8581592E-3,-1.9174165E-3,1.7151131E-3,9.698806E-4,5.352725E-3,6.446385E-4,-2.7058278E-3,3.155904E-4,-2.1057765E-3],"split_indices":[816,317,672,574,310,385,0,627,129,481,309,737,510,0,179,321,275,54,225,413,245,0,0,0,0,0,0,0,0,0,0,0,0,0,0,0,0,0,0],"split_type":[0,0,0,0,0,0,0,0,0,0,0,0,0,0,0,0,0,0,0,0,0,0,0,0,0,0,0,0,0,0,0,0,0,0,0,0,0,0,0],"sum_hessian":[2.0878953E3,2.0452355E3,4.2659863E1,3.5091827E2,1.6943171E3,3.910126E1,3.5586047E0,6.09628E1,2.8995547E2,6.4966327E2,1.0446538E3,2.3352455E1,1.5748804E1,3.544548E0,5.741825E1,5.6247574E1,2.3370792E2,2.205155E2,4.291478E2,3.3002277E2,7.146311E2,1.4415015E1,8.93744E0,4.005439E0,1.1743365E1,2.6589904E0,5.4759262E1,2.4799353E1,3.1448221E1,1.9959969E2,3.4108227E1,1.5319359E2,6.732191E1,3.9679086E2,3.2356934E1,5.5361126E1,2.7466165E2,5.5041284E2,1.6421823E2],"tree_param":{"num_deleted":"0","num_feature":"896","num_nodes":"39","size_leaf_vector":"1"}},{"base_weights":[1.2220504E-1,1.9434844E-1,6.7283235E-2,5.191008E-1,1.6814604E-1,4.8153013E-2,4.3630853E-1,1.8617085E-1,7.858683E-1,1.7890893E-1,-4.8898575E-3,9.028397E-3,4.099584E-2,-1.1150028E-4,6.444648E-1,7.182837E-3,-1.6293536E-1,-3.3435284E-3,8.98235E-1,3.8046598E-1,1.4338835E-1,-4.9255475E-2,9.745219E-2,-2.0704737E-3,7.9346704E-1,-5.9607145E-3,3.2410342E-3,